tree
version=v4
num_class=1
num_tree_per_iteration=1
label_index=0
max_feature_idx=11
objective=binary sigmoid:1
feature_names=Age Fare SibSp Parch Sex Pclass FamilySize IsAlone FarePerPerson Embarked_C Embarked_Q Embarked_S
feature_infos=[0.41999999999999998:80] [0:512.32920000000001] [0:8] [0:6] [0:1] [1:3] [1:11] [0:1] [0:512.32920000000001] [0:1] [0:1] [0:1]
tree_sizes=1583 1782 1785 1799 1595 2007 2221 1804 2012 2116 1802 1920 1916 1700 1804 1809 2007 1287 2011 1708 1712 2018 1917 2013 1900 1821 1821 1285 1700 1698 1796 2109 1693 1696 1796 1907 1816 1808 1814 1390 1807 1602 1918 1704 1917 2239 1703 1287 1399 1922 2024 2236 2117 2230 2017 1389 1078 1074 2026 1493 976 974 1385 973 1276 1599 1498 1502 1705 886 1180 1184 1188 1195 1389 1703 1701 1399 1496 1923 2221 2024 1293 2237 2343 1388 1587 1075 1701 1507 1493 1184 1085 1180 1298 2114 2013 1919 2012 2016 1712 980 1815 1818 977 1388 1292 1288 1717 1396 1706 1808 1809 1820 2226 2222 2015 1178 2226 2027 1287 1293 2132 1608 2135 1706 1713 1613 1610 1711 1082 1607 1186 1194 1194 1812 2344 1712 1816 1914 1916 1813 1815 1699 1817 2126 2245 1819 2025 1926 2136 2018 1911 1820 1934 1608 1601 1703 1594 1410 2243 1717 1814 1920 2342 1812 1702 1194 1819 1822 1396 1608 1084 1612 1503 1395 1391 1394 1395 1934 1285 1490 1182 1181 1290 1922 1722 2129 2033 1505 1928 2257 1924 1936 1196 1913 1826 2131 2130 1717

Tree=0
num_leaves=14
num_cat=0
split_feature=4 5 8 8 8 0 11 0 9 0 8 0 2
split_gain=168.821 38.0771 22.4008 11.5612 7.48492 7.0893 4.14699 1.34749 0.908931 1.71394 0.646025 0.898046 0.255001
threshold=1.0000000180025095e-35 2.5000000000000004 26.138550000000006 7.133350000000001 38.432300000000005 16.500000000000004 1.0000000180025095e-35 45.250000000000007 1.0000000180025095e-35 28.250000000000004 38.811450000000001 24.500000000000004 1.0000000180025095e-35
decision_type=2 2 2 2 2 2 2 2 2 2 2 2 2
left_child=1 10 5 -3 -4 -2 -5 8 9 -7 11 -1 -13
right_child=2 3 4 6 -6 7 -8 -9 -10 -11 -12 12 -14
leaf_value=-0.34462468393169665 -0.47336158018432667 -0.49972199227415093 -0.4345106239938008 -0.39162386827789486 -0.50013669095955859 -0.54009856428065772 -0.4503728487106427 -0.55612101348958887 -0.51382174757801047 -0.52087162522994013 -0.34462468393169654 -0.3615443902963279 -0.37595747349582875
leaf_weight=5.4374466091394487 5.4374466091394416 7.0923216640949276 9.4564288854599017 6.3830894976854333 8.0379645526409131 31.20621532201767 5.6738573312759373 5.6738573312759391 7.092321664094924 18.440036326646805 8.2743752747774106 5.9102680534124357 6.3830894976854324
leaf_count=23 23 30 40 27 34 132 24 24 30 78 35 25 27
internal_value=-0.473745 -0.395561 -0.515111 -0.449067 -0.464663 -0.528118 -0.41927 -0.532888 -0.530565 -0.532957 -0.356161 -0.361544 -0.369028
internal_weight=130.499 45.1544 85.3443 19.1493 17.4944 67.8499 12.0569 62.4124 56.7386 49.6463 26.0052 17.7308 12.2934
internal_count=552 191 361 81 74 287 51 264 240 210 110 75 52
is_linear=0
shrinkage=1


Tree=1
num_leaves=16
num_cat=0
split_feature=4 8 8 8 8 6 6 11 1 8 1 8 1 1 8
split_gain=151.098 29.1808 20.6401 7.36226 6.7159 3.30709 4.35507 3.18333 1.64086 3.46974 1.14902 0.714025 0.147629 0.104795 0.000512673
threshold=1.0000000180025095e-35 7.2281500000000003 26.138550000000006 9.7083333333333339 38.432300000000005 2.5000000000000004 3.5000000000000004 1.0000000180025095e-35 7.133350000000001 7.2396000000000003 30.597900000000003 7.910400000000001 112.07915000000001 30.597900000000003 31.083333333333339
decision_type=2 2 2 2 2 2 2 2 2 2 2 2 2 2 2
left_child=1 -1 5 7 13 8 -7 -3 -2 -10 -5 -11 14 -4 -12
right_child=2 3 4 10 -6 6 -8 -9 9 11 12 -13 -14 -15 -16
leaf_value=-0.00529843800329416 -0.079335984517008656 0.092804009304749358 0.043374582539564832 0.095810267724949522 -0.024000990760116945 0.0073782406243462807 -0.059166974604772653 0.039872739115761363 -0.01473647388803768 -0.066067251549279019 0.12170065404044875 -0.052752493728107364 0.11097125558249053 0.03289511118984164 0.12099893289284579
leaf_weight=9.2199784219264966 6.5247238874435416 4.813084602355957 4.7712329030036944 9.423904091119768 7.989858627319335 5.1528047621250135 4.702470988035202 6.9308793246746045 5.3802947998046866 15.139041334390638 5.3249264359474164 30.065917864441872 5.094450742006301 4.7712329030036926 5.091747522354126
leaf_count=39 28 20 20 39 34 22 20 29 23 65 22 129 21 20 21
internal_value=0.00119104 0.0742187 -0.0384775 0.0942069 0.0098182 -0.0511219 -0.024374 0.0615658 -0.0557377 -0.0526939 0.10958 -0.0572116 0.117946 0.0381348 0.121358
internal_weight=130.397 45.899 84.4976 36.679 17.5323 66.9653 9.85528 11.744 57.11 50.5853 24.935 45.205 15.5111 9.54247 10.4167
internal_count=552 191 361 152 74 287 42 49 245 217 103 194 64 40 43
is_linear=0
shrinkage=0.05


Tree=2
num_leaves=16
num_cat=0
split_feature=4 5 8 8 0 8 1 1 0 0 1 1 0 1 8
split_gain=135.767 29.5306 19.0376 9.32896 6.52635 6.03229 3.77321 1.52812 1.42315 0.904093 0.673992 0.53987 0.140736 0.0923707 0.00149419
threshold=1.0000000180025095e-35 2.5000000000000004 26.138550000000006 7.133350000000001 16.500000000000004 38.432300000000005 7.8875000000000011 7.133350000000001 45.250000000000007 20.250000000000004 30.597900000000003 20.787500000000005 27.500000000000004 30.597900000000003 40.605200000000004
decision_type=2 2 2 2 2 2 2 2 2 2 2 2 2 2 2
left_child=1 10 4 -3 -2 13 -5 -6 9 -9 11 -1 -12 -4 -14
right_child=2 3 5 6 7 -7 -8 8 -10 -11 12 -13 14 -15 -16
leaf_value=0.10600166105986437 0.0034554853205602636 -0.023367826230104961 0.040834025010844134 0.074750131592178415 -0.077098661685503167 -0.022942097602166953 0.01934519165130532 -0.031228942740042388 -0.077245205037341072 -0.051325986151118767 0.10356359612047238 0.084036680423173263 0.11413389984959316 0.031033652997569557 0.11293100517422539
leaf_weight=5.1523505598306674 5.3901724368333808 7.0414061844348934 4.8135381937026995 6.5506442636251432 6.3819669336080542 7.9419447183609 5.7882367521524429 6.43253469467163 4.793851986527442 43.038981169462204 5.4293537139892569 6.120783656835556 4.9231918305158597 4.803679883480072 5.4278643131256104
leaf_count=21 23 30 20 27 28 34 24 28 21 187 22 25 20 20 22
internal_value=0.00111199 0.0696643 -0.0369655 0.0225535 -0.0492692 0.00930722 0.0487594 -0.0539553 -0.0512334 -0.0487129 0.103413 0.0940757 0.110083 0.0359389 0.113503
internal_weight=130.031 46.4338 83.5967 19.3803 66.0375 17.5592 12.3389 60.6473 54.2654 49.4715 27.0535 11.2731 15.7804 9.61722 10.3511
internal_count=552 191 361 81 287 74 51 264 236 215 110 46 64 40 42
is_linear=0
shrinkage=0.05


Tree=3
num_leaves=16
num_cat=0
split_feature=4 5 8 8 0 8 1 1 0 0 1 1 9 1 8
split_gain=122.414 26.1381 17.5756 8.35432 6.07214 5.50456 3.33214 1.46862 1.36404 0.849063 0.60948 0.476013 0.389464 0.125416 0.000372634
threshold=1.0000000180025095e-35 2.5000000000000004 26.138550000000006 7.133350000000001 16.500000000000004 30.594800000000003 7.8875000000000011 7.133350000000001 45.250000000000007 20.250000000000004 30.597900000000003 20.787500000000005 1.0000000180025095e-35 112.07915000000001 31.083333333333339
decision_type=2 2 2 2 2 2 2 2 2 2 2 2 2 2 2
left_child=1 10 4 -3 -2 -4 -5 -6 9 -9 11 -1 -7 14 -12
right_child=2 3 5 6 7 12 -8 8 -10 -11 13 -13 -14 -15 -16
leaf_value=0.099508066142197024 0.0032798146717508548 -0.022334378679952815 0.043123988405903341 0.070191442778879523 -0.075088033930280587 -0.023456785750194734 0.018311704042278148 -0.029945905633365983 -0.075220132951712385 -0.049518152686780677 0.10690830490351622 0.078996013349868069 -0.0042427978498807998 0.097173204068208785 0.10631824443958592
leaf_weight=5.2124242633581179 5.3948100209236136 6.9999405741691616 7.0241796970367458 6.6252197623252851 6.2290818244218817 5.3591883331537229 5.808628112077713 6.3742401897907248 4.679655283689498 42.396231025457382 5.4769151806831342 6.1840050518512726 5.192942813038826 5.2289666831493369 5.2313082665205002
leaf_count=21 23 30 29 27 28 23 24 28 21 187 22 25 22 21 21
internal_value=0.00104267 0.0656884 -0.0355369 0.0213577 -0.0475198 0.00882829 0.0459552 -0.0521119 -0.0494343 -0.0469601 0.0972069 0.0883777 -0.0140011 0.103521 0.10662
internal_weight=129.418 46.7674 82.6503 19.4338 65.074 17.5763 12.4338 59.6792 53.4501 48.7705 27.3336 11.3964 10.5521 15.9372 10.7082
internal_count=552 191 361 81 287 74 51 264 236 215 110 46 45 64 43
is_linear=0
shrinkage=0.05


Tree=4
num_leaves=14
num_cat=0
split_feature=4 5 8 11 0 8 8 0 9 0 0 8 0
split_gain=110.696 23.3878 16.2414 8.84096 5.6574 4.9788 3.69819 1.20222 0.814782 1.75043 0.53593 0.668652 0.16666
threshold=1.0000000180025095e-35 2.5000000000000004 26.138550000000006 1.0000000180025095e-35 16.500000000000004 38.432300000000005 7.2812500000000009 45.250000000000007 1.0000000180025095e-35 28.250000000000004 24.500000000000004 38.811450000000001 38.500000000000007
decision_type=2 2 2 2 2 2 2 2 2 2 2 2 2
left_child=1 10 4 -3 -2 -4 -5 8 9 -6 -1 12 -12
right_child=2 3 5 6 7 -7 -8 -9 -10 -11 11 -13 -14
leaf_value=0.10256141434921112 0.0031132294588708427 0.06034404697196543 0.032288232022437878 -0.036020448671552102 -0.057943187333796234 -0.021219114619586144 0.020926828530355143 -0.073312719729256598 -0.031926249049663707 -0.037921093317780624 0.075601033761365566 0.1007564182553779 0.086968052958468989
leaf_weight=8.2402098774909991 5.3991873711347571 8.0577717274427414 9.7284979224205035 5.8086124211549759 29.317068189382553 7.8599466830492011 5.5988743305206299 5.204128459095954 6.7688287943601599 17.391782239079475 6.9849360287189501 6.2495033442974082 5.989870473742485
leaf_count=33 23 33 40 25 132 34 23 24 30 78 28 25 24
internal_value=0.000981726 0.0621775 -0.0341833 0.0202503 -0.0458648 0.0083768 -0.00807033 -0.0503712 -0.0481386 -0.0504881 0.0918931 0.0873203 0.0808487
internal_weight=128.599 46.9298 81.6694 19.4653 64.081 17.5884 11.4075 58.6818 53.4777 46.7089 27.4645 19.2243 12.9748
internal_count=552 191 361 81 287 74 48 264 240 210 110 77 52
is_linear=0
shrinkage=0.05


Tree=5
num_leaves=18
num_cat=0
split_feature=4 5 0 1 1 0 1 1 1 1 0 0 0 1 6 0 1
split_gain=107.186 20.6473 10.6136 9.22297 8.97944 7.25913 5.49642 4.19749 1.85689 2.21411 0.86902 0.753638 0.740643 1.05746 0.21232 0.126699 0.0132931
threshold=1.0000000180025095e-35 2.5000000000000004 13.500000000000002 26.266650000000002 21.037500000000005 27.500000000000004 30.597900000000003 52.277100000000011 7.910400000000001 8.0937500000000018 42.500000000000007 35.500000000000007 32.250000000000007 7.8875000000000011 2.5000000000000004 32.250000000000007 47.000000000000007
decision_type=2 2 2 2 2 2 2 2 2 2 2 2 2 2 2 2 2
left_child=1 10 -2 8 5 -3 -5 -8 12 -10 14 -11 13 -4 15 16 -1
right_child=2 4 3 6 -6 -7 7 -9 9 11 -12 -13 -14 -15 -16 -17 -18
leaf_value=0.099510249899392653 0.034963390091160645 0.071917154699761482 -0.047003702626478489 0.034645701642860557 -0.033826762889420235 0.0035390620691658891 -0.06070811048267765 -0.0023284028664011186 -0.017653674305251558 -0.043264743793849508 0.068651538406759888 -0.064548105069750533 -0.072879014671431291 -0.073542483135813894 0.084005574495105595 0.088034046365393664 0.096079280072804085
leaf_weight=4.9974209517240613 5.1828227788209906 8.6130122691392916 15.012500643730169 5.3487808406353023 5.3670995086431494 7.0654290318489066 5.1328309029340726 7.6947104334831238 7.9250173270702389 17.628429576754574 4.994175747036933 5.4437408149242392 6.6683087348937979 5.0049177855253211 6.4924265295267096 4.9962865561246863 6.4887475371360779
leaf_count=20 22 36 69 22 23 29 22 33 36 80 20 25 31 23 26 20 26
internal_value=0.00103825 0.0594049 -0.0342621 -0.0389917 0.0219941 0.0411028 -0.00793387 -0.0256885 -0.0487783 -0.0404546 0.087555 -0.0482864 -0.0584469 -0.0536391 0.0916641 0.0946808 0.097572
internal_weight=130.057 49.0146 81.0421 75.8592 21.0455 15.6784 18.1763 12.8275 57.6829 30.9972 27.9691 23.0722 26.6857 20.0174 22.9749 16.4825 11.4862
internal_count=563 200 363 341 88 65 77 55 264 141 112 105 123 92 92 66 46
is_linear=0
shrinkage=0.05


Tree=6
num_leaves=20
num_cat=0
split_feature=5 6 11 1 1 6 3 1 1 1 10 8 1 1 1 3 5 1 8
split_gain=36.5296 17.4423 11.9281 6.01292 2.95493 3.40196 4.96237 2.59615 1.66312 1.38601 1.25252 1.14436 1.14094 1.08703 2.06192 0.892825 1.07002 0.723374 0.00939287
threshold=2.5000000000000004 1.5000000000000002 1.0000000180025095e-35 56.712500000000013 7.910400000000001 4.5000000000000009 1.0000000180025095e-35 11.893750000000002 7.727100000000001 26.775000000000002 1.0000000180025095e-35 9.4166500000000024 15.745850000000003 7.8875000000000011 7.7354000000000012 1.5000000000000002 1.5000000000000002 77.008350000000021 7.2396000000000003
decision_type=2 2 2 2 2 2 2 2 2 2 2 2 2 2 2 2 2 2 2
left_child=1 3 8 7 13 6 11 -1 -2 12 -10 -6 -9 14 18 16 17 -3 -4
right_child=2 15 4 -5 5 -7 -8 9 10 -11 -12 -13 -14 -15 -16 -17 -18 -19 -20
leaf_value=-0.035470198178784766 -0.015560014071762773 0.077473195673276818 -0.059133530422906422 0.053677753387344609 -0.036160906196302266 -0.056890536209882409 0.028960992013542755 0.0014530199567663131 0.03724299081328019 -0.015411710529752968 0.0068986768511636433 -0.0085527646504685341 0.032012294746592812 -0.071848486250679397 -0.023301620948853803 0.074908204014945676 0.040465697153219689 0.053127920117309907 -0.062460992972035473
leaf_weight=5.6876076459884706 4.7326597720384624 5.1306172907352483 4.1719309389591235 5.1175629347562781 13.960159346461305 7.1175779849290839 4.6300496309995642 8.7746810466051119 5.5416524708271 6.9450203329324713 8.8025357872247696 5.1337026208639136 4.6851476877927771 4.8665348887443534 6.4390730559825888 6.3686338961124411 9.0297704339027405 7.5284518301486969 4.3138824999332428
leaf_count=26 21 21 20 21 63 31 20 39 24 29 38 23 20 23 29 26 38 31 20
internal_value=0.000981948 0.0298405 -0.0235537 0.00412227 -0.0362491 -0.026573 -0.0174772 -0.00559714 0.0101418 0.00272962 0.0186217 -0.028738 0.0120902 -0.0513275 -0.0446363 0.0584484 0.0536152 0.0629949 -0.0608251
internal_weight=128.977 59.2675 69.7098 31.21 50.6329 30.8415 23.7239 26.0925 19.0768 20.4048 14.3442 19.0939 13.4598 19.7914 14.9249 28.0575 21.6888 12.6591 8.48581
internal_count=563 251 312 135 229 137 106 114 83 88 62 86 59 92 69 116 90 52 40
is_linear=0
shrinkage=0.05


Tree=7
num_leaves=16
num_cat=0
split_feature=4 5 8 8 1 3 6 11 1 8 1 1 1 1 8
split_gain=94.2216 17.3925 10.7591 10.4005 7.75532 3.48254 3.82335 1.82838 1.62324 0.867306 1.19657 0.486967 0.199099 0.122831 0.000742743
threshold=1.0000000180025095e-35 2.5000000000000004 26.138550000000006 38.432300000000005 21.037500000000005 1.0000000180025095e-35 3.5000000000000004 1.0000000180025095e-35 7.133350000000001 14.229150000000002 7.910400000000001 29.850000000000005 23.725000000000005 109.89165000000001 31.083333333333339
decision_type=2 2 2 2 2 2 2 2 2 2 2 2 2 2 2
left_child=1 11 5 -4 7 8 -7 -3 -2 10 -10 12 -1 14 -13
right_child=2 4 3 -5 -6 6 -8 -9 9 -11 -12 13 -14 -15 -16
leaf_value=0.07947951673657086 -0.069973289344731723 0.056991120320887656 0.037061740444308912 -0.046016394601416259 -0.031227129792515254 0.018885545900713143 -0.045584417105812049 0.022890358703711994 -0.050522473399394946 -0.06317066220945898 -0.03373346414895783 0.090476604764835863 0.066191813374099059 0.080794815685849328 0.089653806346985637
leaf_weight=6.4787110239267367 6.5242444723844519 7.3909107744693765 9.5640575736761075 6.2154231667518607 5.2637002915143958 4.6043101698160154 4.5944626331329346 8.3962322324514389 18.934861361980438 4.970379412174224 24.14682449400425 6.1781147420406359 4.9907126575708389 5.1906728148460379 4.932632178068161
leaf_count=26 32 30 39 27 23 20 20 35 90 23 112 25 20 21 20
internal_value=0.00092823 0.0556083 -0.0326283 0.00433786 0.0213312 -0.0417746 -0.0133149 0.038855 -0.0465714 -0.0433941 -0.0411124 0.0815911 0.0736976 0.0871448 0.0901113
internal_weight=128.376 48.8217 79.5546 15.7795 21.0508 63.7751 9.19877 15.7871 54.5763 48.0521 43.0817 27.7708 11.4694 16.3014 11.1107
internal_count=563 200 363 66 88 297 40 65 257 225 202 112 46 66 45
is_linear=0
shrinkage=0.05


Tree=8
num_leaves=18
num_cat=0
split_feature=5 7 0 11 1 0 0 0 1 0 0 0 0 0 8 8 0
split_gain=30.052 14.6951 12.549 10.3897 5.00588 4.40343 3.7677 2.74601 2.66065 3.05317 2.12696 2.57714 1.73058 1.48269 1.32022 1.30771 0.53135
threshold=2.5000000000000004 1.0000000180025095e-35 6.5000000000000009 1.0000000180025095e-35 56.712500000000013 26.500000000000004 18.500000000000004 45.250000000000007 11.893750000000002 30.250000000000004 32.250000000000007 28.250000000000004 27.500000000000004 36.250000000000007 7.2812500000000009 5.5937583333333345 42.500000000000007
decision_type=2 2 2 2 2 2 2 2 2 2 2 2 2 2 2 2 2
left_child=1 6 -2 5 7 -4 -1 8 -3 -10 11 15 -8 -14 -7 -5 -12
right_child=2 4 3 10 -6 14 12 -9 9 -11 16 -13 13 -15 -16 -17 -18
leaf_value=0.092141581044111243 0.057193352891789784 -0.028525957757267673 0.045068621359263927 -0.017211016365749263 0.04883447058306014 -0.030039942548716721 0.022781052017927413 -0.037160099339979318 -0.0061211829006618361 0.039022805069024925 -0.072406477038202757 -0.0035823269924428816 0.070736803512079588 0.040290124419281065 0.0026601885291099867 -0.044897866913960478 -0.048300089140654007
leaf_weight=5.1211438030004528 4.6974564194679251 5.0769967436790564 4.939586058259013 5.1072532087564495 5.0517580062150946 5.1609829515218717 6.4631030857563045 5.4373739510774604 8.7284798473119718 6.5603272765874854 5.064680874347685 5.6397102922201148 7.0019783824682262 9.3222847431898099 7.6795982122421265 25.857108280062675 4.1663267463445663
leaf_count=21 20 24 21 23 21 23 27 24 38 28 24 26 29 39 34 121 20
internal_value=0.000882058 0.0270984 -0.0216696 -0.0274929 0.00331857 0.00495012 0.0533887 -0.00559256 0.00283552 0.0132498 -0.0400781 -0.0346692 0.0446796 0.0533496 -0.0104829 -0.0403312 -0.0615263
internal_weight=127.076 58.7634 68.3127 63.6152 30.8549 17.7802 27.9085 25.8032 20.3658 15.2888 45.8351 36.6041 22.7874 16.3243 12.8406 30.9644 9.23101
internal_count=563 251 312 292 135 78 116 114 90 66 214 170 95 68 57 144 44
is_linear=0
shrinkage=0.05


Tree=9
num_leaves=19
num_cat=0
split_feature=5 6 11 0 0 1 0 0 1 0 0 0 8 0 1 8 0 0
split_gain=27.2779 13.2635 9.62099 5.89859 5.53885 4.53444 3.42366 2.5023 2.41444 2.73816 2.19642 2.23525 1.60828 1.56928 1.47181 1.20529 0.976007 0.516706
threshold=2.5000000000000004 1.5000000000000002 1.0000000180025095e-35 26.500000000000004 9.5000000000000018 56.712500000000013 18.500000000000004 45.250000000000007 11.893750000000002 30.250000000000004 32.250000000000007 28.250000000000004 5.5937583333333345 27.500000000000004 38.750000000000007 7.2812500000000009 41.500000000000007 42.500000000000007
decision_type=2 2 2 2 2 2 2 2 2 2 2 2 2 2 2 2 2 2
left_child=1 5 3 -2 -4 7 -3 8 -1 -10 11 12 -6 -8 -15 -5 -16 -12
right_child=2 6 4 15 10 -7 13 -9 9 -11 17 -13 -14 14 16 -17 -18 -19
leaf_value=-0.027364256360010178 0.049445963168646329 0.087770017120499241 0.020661707092079783 -0.028797641089839635 -0.010706856054328889 0.046553687616434816 0.021631781551763554 -0.035624765904605546 -0.0058222646148107767 0.036878564957202313 -0.070860210480862162 -0.0034075840979056037 -0.042788555183499125 0.029570588445190206 0.074805380577774555 0.0025254885510886415 0.044617273363895218 -0.046804973736240846
leaf_weight=5.0291472822427847 6.1936028599739101 5.1076679378747967 4.4414356946945182 5.1156175434589368 4.6307527869939831 5.0347170978784552 6.4660710245370892 5.3893646299839011 8.7180471718311292 6.5937750637531272 4.9201042652130109 5.6326538473367682 24.976863637566566 5.4606171250343349 6.0293472260236722 7.6846029013395309 4.8161610513925552 4.0864925682544708
leaf_count=24 26 21 19 23 21 21 27 24 38 28 24 26 119 23 25 34 20 20
internal_value=0.000834649 0.0257949 -0.0207928 0.00938928 -0.0325671 0.00315881 0.0507735 -0.00533237 0.00269364 0.0125661 -0.0379102 -0.0322784 -0.0377708 0.0424754 0.0507408 -0.00999282 0.0613998 -0.0599458
internal_weight=126.327 58.6449 67.6821 18.9938 48.6883 30.7651 27.8799 25.7303 20.341 15.3118 44.2469 35.2403 29.6076 22.7722 16.3061 12.8002 10.8455 9.0066
internal_count=563 251 312 83 229 135 116 114 90 66 210 166 140 95 68 57 45 44
is_linear=0
shrinkage=0.05


Tree=10
num_leaves=16
num_cat=0
split_feature=4 5 8 0 11 8 0 1 1 0 1 0 1 0 0
split_gain=77.0997 17.0404 14.5195 9.11212 6.10339 5.66524 3.6361 1.28001 1.53725 1.84284 0.991318 0.441934 0.555007 0.356697 0.134064
threshold=1.0000000180025095e-35 2.5000000000000004 26.138550000000006 13.500000000000002 1.0000000180025095e-35 38.432300000000005 24.500000000000004 15.745850000000003 7.910400000000001 20.250000000000004 7.785400000000001 24.500000000000004 30.597900000000003 31.500000000000004 35.500000000000007
decision_type=2 2 2 2 2 2 2 2 2 2 2 2 2 2 2
left_child=1 11 3 -2 -3 -4 -6 8 10 -10 -5 -1 -13 -9 -14
right_child=2 4 5 7 6 -7 -8 13 9 -11 -12 12 14 -15 -16
leaf_value=0.085342050432562488 0.025755263982156343 0.046570938624611397 0.03795329783092885 -0.046402815199595181 0.018430286333147455 -0.023696047109783222 -0.036318714962582439 -0.07281941914167217 -0.0071541010854835434 -0.042301781274975192 -0.06880427537538357 0.061707641022425479 0.072591584663067657 -0.054053011446144154 0.083805873254632623
leaf_weight=7.9711843281984356 4.5436686128377906 9.1562672257423401 8.8889689743518812 15.206643536686899 6.4099971204996109 6.4164549857377997 5.7558116614818573 5.3406581431627256 4.6334445625543621 19.112922146916389 7.3138250708580008 8.4108264446258563 4.784934461116789 4.8148878067731857 6.0155619978904724
leaf_count=33 19 37 36 76 27 28 25 25 22 92 37 34 20 22 25
internal_value=-8.85219e-05 0.0491971 -0.0314316 -0.0423621 0.0157354 0.0121082 -0.00747222 -0.0478476 -0.0443193 -0.0354437 -0.053678 0.0754447 0.071338 -0.063922 0.0788376
internal_weight=124.776 48.5046 76.2715 60.966 21.3221 15.3054 12.1658 56.4224 46.2668 23.7464 22.5205 27.1825 19.2113 10.1555 10.8005
internal_count=558 201 357 293 89 64 52 274 227 114 113 112 79 47 45
is_linear=0
shrinkage=0.05


Tree=11
num_leaves=17
num_cat=0
split_feature=4 5 8 11 8 3 6 8 1 1 8 1 1 6 9 7
split_gain=70.3909 15.832 13.4422 5.49399 5.10587 2.54794 5.44437 2.33883 1.55834 1.98591 1.7435 0.940491 0.352021 0.177489 0.103265 0.0609826
threshold=1.0000000180025095e-35 2.5000000000000004 26.138550000000006 1.0000000180025095e-35 38.432300000000005 1.0000000180025095e-35 3.5000000000000004 7.7354000000000012 14.200000000000001 7.910400000000001 8.0937500000000018 7.785400000000001 22.441650000000003 2.5000000000000004 1.0000000180025095e-35 1.0000000180025095e-35
decision_type=2 2 2 2 2 2 2 2 2 2 2 2 2 2 2 2
left_child=1 12 5 -3 -4 8 -7 -5 9 11 -11 -2 -1 14 -14 -10
right_child=2 3 4 7 -6 6 -8 -9 15 10 -12 -13 13 -15 -16 -17
leaf_value=0.061582357981613045 -0.045039961026646799 0.044151474704112847 0.035933436007689744 0.010771747417667255 -0.022668329658326804 0.018536265835686152 -0.055642030133219111 -0.034051255335975222 -0.061019004031235384 -0.011400502830730311 -0.041878245119905941 -0.067405662251693352 0.082850853168337152 0.069242752918097367 0.074235027897967279 -0.069582734899722554
leaf_weight=5.6322310119867351 14.89152877032757 9.1745962202548981 8.9183930158615095 7.2900682687759399 6.3731173276901236 5.0439527183771116 4.8541788011789322 4.8441286087036133 4.0931110978126508 7.5919858366251018 12.286144644021986 6.8682167679071418 7.6195440888404864 7.1611746102571479 6.3979645818471909 4.2242900729179382
leaf_count=23 76 37 36 32 28 22 22 20 19 37 60 36 32 30 27 21
internal_value=-9.28553e-05 0.047124 -0.0303286 0.0149539 0.0115097 -0.0410176 -0.0178418 -0.00712218 -0.0456096 -0.0416627 -0.030238 -0.0520994 0.0726922 0.0756467 0.0789184 -0.0653684
internal_weight=123.265 48.1197 75.1449 21.3088 15.2915 59.8534 9.89813 12.1342 49.9553 41.6379 19.8781 21.7597 26.8109 21.1787 14.0175 8.3174
internal_count=558 201 357 89 64 293 44 52 249 209 97 112 112 89 59 40
is_linear=0
shrinkage=0.05


Tree=12
num_leaves=17
num_cat=0
split_feature=4 5 8 11 8 3 6 8 1 1 8 1 1 6 11 2
split_gain=64.2967 14.7752 12.4415 4.9529 4.605 2.41985 5.00735 2.12246 1.49172 1.91505 1.63317 0.928044 0.349631 0.171236 0.0964173 0.064214
threshold=1.0000000180025095e-35 2.5000000000000004 26.138550000000006 1.0000000180025095e-35 38.432300000000005 1.0000000180025095e-35 3.5000000000000004 7.7354000000000012 14.200000000000001 7.910400000000001 8.0937500000000018 7.785400000000001 22.441650000000003 2.5000000000000004 1.0000000180025095e-35 1.0000000180025095e-35
decision_type=2 2 2 2 2 2 2 2 2 2 2 2 2 2 2 2
left_child=1 12 5 -3 -4 8 -7 -5 9 11 -11 -2 -1 14 -14 -10
right_child=2 3 4 7 -6 6 -8 -9 15 10 -12 -13 13 -15 -16 -17
leaf_value=0.05906108177813188 -0.043725670501440883 0.041904291621831374 0.034050066667686028 0.010201668983312135 -0.021683940470136623 0.017526141901340508 -0.053869231760837633 -0.032549933687200071 -0.068271946383109114 -0.010883816682724904 -0.040527367077725675 -0.066274293519150596 0.071985647476873207 0.06681961982109634 0.08036794038139583 -0.059363602126130989
leaf_weight=5.5803433954715755 14.580172628164293 9.1830081045627594 8.9404929578304273 7.3119916617870331 6.3304273039102545 5.067308843135832 4.7654995024204254 4.8149324357509613 4.0934423804283124 7.555728048086169 12.066541597247122 6.6419281363487235 6.5124878883361861 7.0525739789009085 7.2493422031402561 3.9992813169956207
leaf_count=23 76 37 36 32 28 22 22 20 21 37 60 36 28 30 31 19
internal_value=-9.59041e-05 0.0451723 -0.0292623 0.0142035 0.010946 -0.0397101 -0.0170758 -0.00677263 -0.044258 -0.0403722 -0.0291129 -0.0507828 0.070175 0.0731547 0.0764012 -0.0638696
internal_weight=121.746 47.7047 74.0408 21.3099 15.2709 58.7699 9.83281 12.1269 48.9371 40.8444 19.6223 21.2221 26.3947 20.8144 13.7618 8.09272
internal_count=558 201 357 89 64 293 44 52 249 209 97 112 112 89 59 40
is_linear=0
shrinkage=0.05


Tree=13
num_leaves=15
num_cat=0
split_feature=4 5 8 0 11 8 0 0 0 9 0 1 8 0
split_gain=58.782 13.8313 11.5192 8.40788 4.46996 4.15579 3.28838 1.3222 4.70746 2.22549 0.45514 0.606109 0.365888 0.134011
threshold=1.0000000180025095e-35 2.5000000000000004 26.138550000000006 13.500000000000002 1.0000000180025095e-35 38.432300000000005 24.500000000000004 32.250000000000007 28.250000000000004 1.0000000180025095e-35 24.500000000000004 30.597900000000003 7.910400000000001 35.500000000000007
decision_type=2 2 2 2 2 2 2 2 2 2 2 2 2 2
left_child=1 10 3 -2 -3 -4 -6 8 9 -5 -1 -12 -9 -13
right_child=2 4 5 7 6 -7 -8 12 -10 -11 11 13 -14 -15
leaf_value=0.078193781863490297 0.027194070842123604 0.039809443661609059 0.03228920752330984 -0.051096329413221279 0.018065101933074212 -0.02074069304353518 -0.034126068559127837 -0.06708198388429075 0.0037619488754462669 -0.012671054419769068 0.053480239937900798 0.065323184806486509 -0.050394304049947283 0.076863433148957189
leaf_weight=7.5652229487895992 4.4969737976789466 9.182891920208931 8.9562142342329008 30.051112279295921 6.4274650812149048 6.2884987592697135 5.6896973848342896 5.7790512144565565 5.4446936994791022 4.3084302842617026 8.176080450415613 4.5142066329717618 7.6102184653282166 5.6821505427360535
leaf_count=33 19 37 36 157 27 28 25 31 27 21 34 20 38 25
internal_value=-9.80681e-05 0.0433543 -0.0282407 -0.0384553 0.0134982 0.0104142 -0.00644162 -0.0440052 -0.0394333 -0.0462781 0.0678721 0.063622 -0.057597 0.0717542
internal_weight=120.173 47.2377 72.9352 57.6905 21.3001 15.2447 12.1172 53.1935 39.8042 34.3595 25.9377 18.3724 13.3893 10.1964
internal_count=558 201 357 293 89 64 52 274 205 178 112 79 69 45
is_linear=0
shrinkage=0.05


Tree=14
num_leaves=16
num_cat=0
split_feature=4 8 8 0 8 11 3 0 0 0 1 1 8 8 8
split_gain=53.8068 10.6738 9.62125 6.61899 3.75234 2.92005 6.8977 1.315 4.3682 1.59643 1.02168 0.561226 0.369219 0.246311 0.428664
threshold=1.0000000180025095e-35 26.138550000000006 9.7083333333333339 15.500000000000002 38.432300000000005 1.0000000180025095e-35 1.0000000180025095e-35 32.250000000000007 28.250000000000004 20.250000000000004 22.441650000000003 25.964600000000004 7.910400000000001 28.606250000000003 52.843750000000007
decision_type=2 2 2 2 2 2 2 2 2 2 2 2 2 2 2
left_child=2 3 5 -2 -3 -1 -7 8 9 -5 -4 -8 -9 -12 -15
right_child=1 4 10 7 -6 6 11 12 -10 -11 13 -13 -14 14 -16
leaf_value=0.041404859633719447 0.018198308105610288 0.030638925615401314 0.046461136966125985 -0.025301036693095077 -0.019836592696732221 -0.042489915691894371 0.041963346746970769 -0.065987594078540962 0.0035678536668439851 -0.050906771834665923 0.077678030576330021 0.017486863945642705 -0.048979921721370494 0.053882961571684464 0.074361282796333791
leaf_weight=8.9195691049098969 4.9127069264650336 8.9663968831300718 5.967076092958453 8.0281902551650983 6.2474256455898276 4.9932436943054208 4.8933615237474424 5.5860442072153074 5.4536132812499991 25.176622480154037 7.0101477354764965 4.4916815608739853 7.4427691996097565 4.482377350330351 5.9444554001092911
leaf_count=36 21 36 25 41 28 21 21 31 27 135 31 20 38 20 27
internal_value=-0.00010052 -0.0272689 0.0416765 -0.0372629 0.00991159 0.0189304 0.00498841 -0.0425343 -0.0379044 -0.0447159 0.0643193 0.0302489 -0.0562719 0.0704305 0.0655579
internal_weight=118.516 71.8138 46.7019 56.5999 15.2138 23.2979 14.3783 51.6872 38.6584 33.2048 23.4041 9.38504 13.0288 17.437 10.4268
internal_count=558 357 201 293 64 98 62 272 203 176 103 41 69 78 47
is_linear=0
shrinkage=0.05


Tree=15
num_leaves=16
num_cat=0
split_feature=4 0 5 1 5 3 1 6 1 1 1 0 1 0 0
split_gain=52.0386 16.5899 8.00093 7.72809 6.18004 2.10071 2.00006 2.92923 1.56817 1.10667 0.730584 0.511763 0.49804 0.153122 0.000570123
threshold=1.0000000180025095e-35 7.5000000000000009 2.5000000000000004 14.200000000000001 1.5000000000000002 1.0000000180025095e-35 30.597900000000003 1.5000000000000002 23.125000000000004 13.208350000000001 29.850000000000005 32.250000000000007 7.7625000000000011 25.500000000000004 38.500000000000007
decision_type=2 2 2 2 2 2 2 2 2 2 2 2 2 2 2
left_child=2 -2 10 12 6 8 -3 -8 9 -6 11 -1 -4 -12 -15
right_child=1 4 3 -5 5 -7 7 -9 -10 -11 13 -13 -14 14 -16
leaf_value=0.061896300490856704 0.073982201918572299 0.015342708077185414 0.058000811861484793 -0.015071724729340097 -0.037758044621897031 -0.070929423966885966 -0.048706587975547999 0.0038575121354472545 -0.0072388467905425552 -0.066459514797770292 0.061657395786408602 0.040147589063452949 0.037489925326169925 0.072672025023660561 0.073456038331227755
leaf_weight=5.9875617772340792 3.9080766290426245 6.603178724646571 4.9113576561212557 9.1015015542507154 36.628475174307823 5.2429642230272284 4.7924967706203443 5.9298357665538788 3.9135234951972953 3.6975814700126639 4.3154990971088401 4.9335282295942307 7.4475863426923752 4.7146046161651594 4.5630411356687546
leaf_count=26 16 29 20 39 200 26 21 25 19 20 20 21 31 22 21
internal_value=0.000774503 -0.026148 0.0421854 0.0198923 -0.0320053 -0.0410037 -0.00630522 -0.0196367 -0.0374571 -0.0403897 0.0617014 0.0520715 0.0456408 0.0694383 0.0730576
internal_weight=116.691 70.7161 45.9747 21.4604 66.8081 49.4825 17.3255 10.7223 44.2396 40.3261 24.5142 10.9211 12.3589 13.5931 9.27765
internal_count=556 356 200 90 340 265 75 46 239 220 110 47 51 63 43
is_linear=0
shrinkage=0.05


Tree=16
num_leaves=18
num_cat=0
split_feature=4 0 8 8 8 0 1 0 1 1 8 10 8 8 0 0 8
split_gain=47.6085 15.0673 10.3097 9.78602 6.6089 4.18751 1.80684 1.65093 1.08003 1.25712 1.27796 0.771226 0.853396 0.3918 0.356112 0.361281 0.170308
threshold=1.0000000180025095e-35 7.5000000000000009 7.2281500000000003 26.138550000000006 30.594800000000003 27.500000000000004 21.377100000000002 31.500000000000004 13.208350000000001 7.133350000000001 7.2396000000000003 1.0000000180025095e-35 9.7083333333333339 7.7354000000000012 43.500000000000007 27.500000000000004 14.229150000000002
decision_type=2 2 2 2 2 2 2 2 2 2 2 2 2 2 2 2 2
left_child=2 -2 5 8 -5 -1 11 -6 9 -3 -11 12 -4 -10 15 -8 -15
right_child=1 3 6 4 7 -7 14 -9 13 10 -12 -13 -14 16 -16 -17 -18
leaf_value=0.024004003569948067 0.069871581949515135 -0.063389069429564474 0.017955888604641902 0.04047551727448033 -0.045275586152639102 -0.038379631859725073 0.059361761299562867 -0.004173817032145379 -0.068523245900954502 -0.012071082674686043 -0.038920666166055023 0.057488121594123691 0.046979831895966079 -0.041379599572970514 0.051768556265771738 0.075043271477655674 -0.05613343464983106
leaf_weight=6.6721942573785764 3.9304561764001837 4.3041768670082083 4.7816560268402082 6.7412478774786022 4.6881660073995572 4.5071546733379364 6.6658957153558758 5.1018846482038498 3.8165397942066175 5.2647234350442877 28.013293147087097 4.893279790878295 5.384786993265152 3.7941250950098038 4.3734161257743827 8.1801809221506101 4.0373561233282089
leaf_count=28 16 26 20 27 21 20 31 22 20 27 156 20 23 20 20 38 21
internal_value=0.000741481 -0.025224 0.0405488 -0.0309077 0.00237741 -0.00114708 0.0541469 -0.0238562 -0.0420847 -0.0379617 -0.0346729 0.0411788 0.0333288 -0.0553872 0.0643083 0.0680023 -0.0489856
internal_weight=115.151 69.692 45.4586 65.7615 16.5313 11.1793 34.2792 9.79005 49.2302 37.5822 33.278 15.0597 10.1664 11.648 19.2195 14.8461 7.83148
internal_count=556 356 200 340 70 48 152 43 270 209 183 63 43 61 89 69 41
is_linear=0
shrinkage=0.05


Tree=17
num_leaves=11
num_cat=0
split_feature=0 1 1 5 10 1 0 3 8 0
split_gain=15.5712 13.6579 5.01442 4.8175 6.97054 4.09273 3.7073 3.16934 2.09743 1.7386
threshold=5.5000000000000009 52.277100000000011 7.133350000000001 2.5000000000000004 1.0000000180025095e-35 14.200000000000001 50.500000000000007 1.0000000180025095e-35 28.606250000000003 29.500000000000004
decision_type=2 2 2 2 2 2 2 2 2 2
left_child=-1 2 -2 6 5 -5 8 9 -4 -3
right_child=1 7 3 4 -6 -7 -8 -9 -10 -11
leaf_value=0.073002854299488065 -0.064736055726153915 0.025343962511248781 0.019375617471268359 -0.018563660245677405 0.02051280244166612 -0.053968743539678933 -0.035959603207399174 0.0069269194796846567 -0.018082190869184511 0.062940693664420011
leaf_weight=6.9897072017192832 4.3965058624744406 5.1125412881374377 21.715063914656646 30.918253928422928 9.0291805118322355 11.090332910418509 4.5505149364471427 7.4342819750308982 4.5140424817800513 7.7154952436685562
leaf_count=29 27 24 103 165 42 54 21 35 20 36
internal_value=0.000709942 -0.00403578 -0.0127172 -0.00992196 -0.019344 -0.0279107 0.00570131 0.0329028 0.0129291 0.0479567
internal_weight=113.466 106.476 86.2139 81.8174 51.0378 42.0086 30.7796 20.2623 26.2291 12.828
internal_count=556 527 432 405 261 219 144 95 123 60
is_linear=0
shrinkage=0.05


Tree=18
num_leaves=18
num_cat=0
split_feature=4 8 8 8 8 6 1 1 1 1 1 8 3 1 8 8 5
split_gain=43.0103 9.10502 7.28709 6.04796 3.57091 2.38714 3.0847 1.67661 0.78778 0.732268 0.727511 0.690553 0.561997 0.413908 0.237663 0.305159 0.147594
threshold=1.0000000180025095e-35 7.2281500000000003 26.138550000000006 30.594800000000003 4.8239541666666677 1.5000000000000002 26.775000000000002 21.377100000000002 74.89585000000001 7.133350000000001 7.977100000000001 7.977100000000001 1.0000000180025095e-35 7.7354000000000012 38.811450000000001 25.930225000000004 2.5000000000000004
decision_type=2 2 2 2 2 2 2 2 2 2 2 2 2 2 2 2 2
left_child=1 4 5 -4 -1 9 12 11 -5 -2 13 -3 -7 -11 15 -9 -12
right_child=2 7 3 8 -6 6 -8 14 -10 10 16 -13 -14 -15 -16 -17 -18
leaf_value=0.033433365931816957 -0.061658934924437483 0.050427329801990273 0.039859558471107122 -0.033818599461913013 -0.024231249432103669 -0.00865443607197597 -0.043040303958776692 0.063507508303395147 -0.0056670337128406486 -0.04073787722290146 -0.040106384709127404 0.028905482423040647 0.017671949613695264 -0.024275994895972659 0.069329011555552156 0.046607718825181582 -0.049473018134195253
leaf_weight=4.572629436850546 3.6571055948734275 7.2703738212585431 6.9687464982271221 5.3815012723207456 6.5025726407766342 4.2601473331451398 6.1594381034374228 7.6336866021156329 4.6172226220369339 6.1466846764087704 7.5761795043945321 7.6478032022714615 3.8675214499235153 10.080780074000357 6.8204533308744422 4.1090051531791687 9.4537350684404373
leaf_count=20 24 30 28 24 28 23 30 35 20 35 41 33 18 60 34 20 53
internal_value=0.00067397 0.0388757 -0.0242954 0.00410258 -0.000423204 -0.033706 -0.0163523 0.0518753 -0.0208187 -0.0404225 -0.0380872 0.0393942 0.00387288 -0.0305115 0.0619056 0.0575939 -0.045306
internal_weight=112.726 44.5565 68.1691 16.9675 11.0752 51.2016 14.2871 33.4813 9.99872 36.9145 33.2574 14.9182 8.12767 16.2275 18.5631 11.7427 17.0299
internal_count=556 200 356 72 48 284 71 152 44 213 189 63 41 95 89 55 94
is_linear=0
shrinkage=0.05


Tree=19
num_leaves=15
num_cat=0
split_feature=4 0 8 8 8 0 0 8 8 3 8 2 8 0
split_gain=39.3425 12.5412 8.44951 8.20279 5.51156 3.51872 1.47007 1.125 2.2553 0.898382 1.56814 1.24236 0.389476 0.332818
threshold=1.0000000180025095e-35 7.5000000000000009 7.2281500000000003 26.138550000000006 30.594800000000003 27.500000000000004 31.500000000000004 10.508350000000002 7.7625000000000011 1.0000000180025095e-35 13.250000000000002 1.0000000180025095e-35 38.811450000000001 37.500000000000007
decision_type=2 2 2 2 2 2 2 2 2 2 2 2 2 2
left_child=2 -2 5 9 -5 -1 -6 8 -4 10 11 -3 13 -9
right_child=1 3 7 4 6 -7 -8 12 -10 -11 -12 -13 -14 -15
leaf_value=0.022497796175194946 0.063159029075993425 -0.037001138384798356 0.064935499970554936 0.036388967999820936 -0.043044879662753138 -0.035056845207862217 -0.0040609105292309959 0.060263719402451524 0.024523915179904383 -0.05891517802269948 -0.065731029409838146 -0.0082578343304268772 0.068036744304071972 0.043235062461435984
leaf_weight=6.6735327839851362 3.9363643229007712 33.042784467339516 5.5414274334907523 6.7200307995080975 4.5944021791219694 4.4108101576566696 5.1056370586156845 6.5864434391260165 9.1586502194404584 5.2785240560770026 4.2665329724550238 4.2419889867305747 6.6078884452581397 5.0843568444252014
leaf_count=28 16 195 23 27 21 20 22 31 40 28 24 23 34 24
internal_value=0.000645857 -0.0234338 0.0373618 -0.0288229 0.00158562 -0.000405014 -0.0225256 0.0500554 0.0397577 -0.0394851 -0.0370167 -0.0337309 0.0583371 0.0528452
internal_weight=111.249 67.1863 44.0631 63.2499 16.4201 11.0843 9.70004 32.9788 14.7001 46.8298 41.5513 37.2848 18.2787 11.6708
internal_count=556 356 200 340 70 48 43 152 63 270 242 218 89 55
is_linear=0
shrinkage=0.05


Tree=20
num_leaves=15
num_cat=0
split_feature=4 5 8 8 8 9 8 8 8 8 8 8 2 8
split_gain=27.2777 10.3582 4.6716 3.23203 3.33257 2.49815 2.30703 1.02363 0.885949 1.99473 0.764428 0.551867 0.233599 0.153913
threshold=1.0000000180025095e-35 2.5000000000000004 26.138550000000006 7.2281500000000003 7.7625000000000011 1.0000000180025095e-35 38.432300000000005 3.7930500000000005 9.7937500000000011 7.910400000000001 38.811450000000001 5.0409666666666668 1.0000000180025095e-35 13.250000000000002
decision_type=2 2 2 2 2 2 2 2 2 2 2 2 2 2
left_child=1 10 5 11 -5 7 -4 -2 9 -9 12 -3 -1 -10
right_child=2 3 6 4 -6 -7 -8 8 13 -11 -12 -13 -14 -15
leaf_value=0.052215568924071788 -0.062842016882275656 -0.0040897474752848344 0.016082057838601321 0.04944094459207321 -0.0033065934130494402 -0.002590016581063385 -0.022487953017702692 -0.038323036100643929 -0.040712688898809912 -0.011658347961337641 0.066785426348503693 -0.027321819800254284 0.039127558494413094 -0.052543951122430592
leaf_weight=7.2195611894130725 3.1665871590375891 4.5838914960622805 9.1212043315172178 5.5610073208808881 6.4880391657352448 6.6349141448736182 6.7431657016277304 19.734789207577709 7.9535123556852323 10.880851253867148 6.5700837820768347 5.7787667810916901 6.4597927033901215 4.2007072120904922
leaf_count=34 20 20 37 23 27 35 31 119 44 61 35 25 32 25
internal_value=-0.00453156 0.0268481 -0.0240929 0.00342922 0.021038 -0.0312691 -0.000312162 -0.0354114 -0.0333805 -0.0288464 0.0527677 -0.0170452 0.046035 -0.0448018
internal_weight=111.097 42.6611 68.4357 22.4117 12.049 52.5714 15.8644 45.9364 42.7699 30.6156 20.2494 10.3627 13.6794 12.1542
internal_count=568 196 372 95 50 304 68 269 249 180 101 45 66 69
is_linear=0
shrinkage=0.05


Tree=21
num_leaves=18
num_cat=0
split_feature=4 5 8 1 9 8 8 1 1 1 1 3 1 1 1 1 8
split_gain=24.9797 9.70849 4.3387 3.92343 2.34519 2.1236 2.09291 1.4771 2.07559 2.41607 1.16751 1.04744 0.717226 0.192248 0.137516 0.00179661 0.00089612
threshold=1.0000000180025095e-35 2.5000000000000004 26.138550000000006 7.8875000000000011 1.0000000180025095e-35 7.2812500000000009 38.432300000000005 7.7354000000000012 8.0937500000000018 7.910400000000001 29.850000000000005 1.0000000180025095e-35 18.768750000000004 109.89165000000001 7.2396000000000003 67.950000000000003 11.750000000000002
decision_type=2 2 2 2 2 2 2 2 2 2 2 2 2 2 2 2 2
left_child=1 10 4 -3 7 12 -4 14 9 -9 16 -10 -5 15 -2 -12 -1
right_child=2 3 6 5 -6 -7 -8 8 11 -11 13 -13 -14 -15 -16 -17 -18
leaf_value=0.037889853585563391 -0.048567100303111566 0.035121285926683551 0.015286755579951654 -0.012797167294191295 -0.0024634537373785926 0.012760756903641136 -0.021538250656125399 -0.032755186541787544 -0.046245586628636384 0.0085778038843063991 0.067193608551685977 -0.022399604742182968 -0.040302755220931283 0.052528079776255912 -0.062151759949925327 0.065654086309384435 0.036863397625177201
leaf_weight=4.2646236121654528 4.3205967098474494 6.748115316033366 9.1160833239555341 5.2852443456649763 6.6272016167640677 6.0209583640098563 6.6898593455553046 8.4474631398916227 16.551237761974338 6.0803604125976554 3.9703225344419462 6.3803229480981818 4.2968360632658005 3.6747323125600815 3.2750339806079865 3.6255410462617874 4.2406598478555679
leaf_count=20 31 28 37 22 35 25 31 54 97 34 21 32 20 20 21 20 20
internal_value=-0.00436576 0.025845 -0.0232237 0.00326712 -0.0302347 -0.0105094 -0.000299415 -0.0343196 -0.0302429 -0.015456 0.0513631 -0.0396108 -0.0251313 0.0619167 -0.0544244 0.0664588 0.0373781
internal_weight=109.615 42.127 67.4882 22.3512 51.6822 15.603 15.8059 45.055 37.4594 14.5278 19.7759 22.9316 9.58208 11.2706 7.59563 7.59586 8.50528
internal_count=568 196 372 95 304 67 68 269 217 88 101 129 42 61 52 41 40
is_linear=0
shrinkage=0.05


Tree=22
num_leaves=17
num_cat=0
split_feature=4 5 0 8 0 8 11 8 9 8 0 0 8 0 0 8
split_gain=22.8876 9.10528 7.82108 4.43334 3.13436 2.60133 3.04711 2.54054 1.56636 1.16224 1.63426 0.936906 1.16748 0.847772 0.533601 0.3461
threshold=1.0000000180025095e-35 2.5000000000000004 6.5000000000000009 26.138550000000006 45.250000000000007 7.2281500000000003 1.0000000180025095e-35 38.432300000000005 1.0000000180025095e-35 7.7354000000000012 28.250000000000004 24.500000000000004 38.811450000000001 25.500000000000004 27.500000000000004 15.300000000000002
decision_type=2 2 2 2 2 2 2 2 2 2 2 2 2 2 2 2
left_child=1 11 -2 8 7 14 -7 -5 9 13 -11 -1 15 -4 -3 -13
right_child=2 5 3 4 -6 6 -8 -9 -10 10 -12 12 -14 -15 -16 -17
leaf_value=0.067516343204425441 0.054051667277252163 -0.0057421085220196186 -0.034301664291056487 0.03786846248073332 -0.034430347837367876 0.046455423671730223 -0.0041297360919307063 -0.012285272833704714 -0.010065546514923432 -0.042158641689053721 -0.018578158203904228 0.024704984705732572 0.064516663125718132 -0.061215650483393586 -0.028872369845536278 0.043964665657351416
leaf_weight=5.4876580238342312 3.1859127134084693 5.9900295436382311 4.9513092041015607 5.1817022711038572 5.1715645790100089 5.4683485925197601 6.5344421565532667 4.9247892946004868 6.1230296790599814 16.788819044828418 13.066412910819052 5.2707624733448011 4.3545464575290671 7.1527816653251648 4.2714665681123734 4.1845060884952545
leaf_count=29 13 25 30 21 22 23 27 23 33 104 77 25 25 49 20 22
internal_value=-0.00420923 0.0249017 -0.0223906 -0.0262343 -0.00277117 0.00311378 0.0189163 0.0134291 -0.0336896 -0.037137 -0.0318384 0.0500393 0.0430944 -0.0502062 -0.0153703 0.0332285
internal_weight=108.108 41.5618 66.5463 63.3604 15.2781 22.2643 12.0028 10.1065 48.0824 41.9593 29.8552 19.2975 13.8098 12.1041 10.2615 9.45527
internal_count=568 196 372 359 66 95 50 44 293 260 181 101 72 79 45 47
is_linear=0
shrinkage=0.05


Tree=23
num_leaves=18
num_cat=0
split_feature=4 5 0 8 1 0 8 8 1 9 1 1 0 0 0 1 1
split_gain=20.9943 8.53925 7.1342 4.15023 3.36776 2.8408 2.29867 1.79421 1.60394 1.93438 1.42628 1.16988 0.684101 0.678048 0.381405 0.200013 0.00153332
threshold=1.0000000180025095e-35 2.5000000000000004 6.5000000000000009 26.138550000000006 7.8875000000000011 45.250000000000007 38.432300000000005 7.2812500000000009 19.379150000000003 1.0000000180025095e-35 7.7354000000000012 29.850000000000005 27.500000000000004 31.500000000000004 28.250000000000004 109.89165000000001 67.950000000000003
decision_type=2 2 2 2 2 2 2 2 2 2 2 2 2 2 2 2 2
left_child=1 11 -2 8 -3 6 -5 12 9 10 -4 14 -6 -10 -1 16 -13
right_child=2 4 3 5 7 -7 -8 -9 13 -11 -12 15 -14 -15 -16 -17 -18
leaf_value=0.04560052385652652 0.051406698808523256 0.03263693987906565 -0.052850044838938862 0.036065071203595006 -0.01136071765026782 -0.03285136335785422 -0.011725837042405998 0.011528049203207866 -0.06546993248097295 -0.00038033508344215752 -0.027624957403117979 0.065272753576254824 -0.038408441401897836 -0.035899650211457475 0.024094445801190786 0.049911654428169555 0.063803362462351035
leaf_weight=4.0529401898384112 3.1824148893356314 6.6827115118503597 7.0861533656716338 5.1690826267003995 5.2506120204925519 5.1496885716915122 4.9023484885692596 6.0105814635753623 4.6412665843963614 5.2858511358499518 26.787497460842133 3.7357603609561902 4.2139451950788498 3.3291554003953934 4.1959376484155655 3.4542572349309921 3.3833153992891312
leaf_count=20 13 28 52 21 22 22 23 25 27 29 166 21 20 19 20 20 20
internal_value=-0.00406154 0.0240098 -0.0216154 -0.0253425 0.00297374 -0.00264337 0.0128025 -0.00983587 -0.0326734 -0.028512 -0.0329019 0.0487739 -0.0234033 -0.0531188 0.0346611 0.0597842 0.0645744
internal_weight=106.514 40.9801 65.5335 62.351 22.1579 15.2211 10.0714 15.4751 47.1299 39.1595 33.8737 18.8222 9.46456 7.97042 8.24888 10.5733 7.11908
internal_count=568 196 372 359 95 66 44 67 293 247 218 101 42 46 40 61 41
is_linear=0
shrinkage=0.05


Tree=24
num_leaves=17
num_cat=0
split_feature=4 8 0 8 0 1 8 6 6 1 0 0 0 1 1 1
split_gain=19.2494 8.10487 6.51003 3.8801 2.57547 2.41876 2.081 1.84395 3.3989 1.53397 1.92531 1.93467 0.66833 0.657435 0.199337 0.00126848
threshold=1.0000000180025095e-35 10.508350000000002 6.5000000000000009 26.138550000000006 45.250000000000007 7.8875000000000011 38.432300000000005 2.5000000000000004 3.5000000000000004 19.379150000000003 20.250000000000004 23.500000000000004 31.500000000000004 29.850000000000005 109.89165000000001 67.950000000000003
decision_type=2 2 2 2 2 2 2 2 2 2 2 2 2 2 2 2
left_child=1 5 -2 9 6 -1 -5 -7 -9 10 -4 -12 -11 -3 15 -15
right_child=2 13 3 4 -6 7 -8 8 -10 12 11 -13 -14 14 -16 -17
leaf_value=0.031128036485449029 0.048952554455035886 0.037236009226208178 -0.002741954456101378 0.034366154211730969 -0.031353914417580786 -0.021254048167376232 -0.01119017410570229 0.037526581884703467 -0.021912059032799445 -0.064517722375136019 -0.062048787550936159 -0.027482748645211375 -0.034775771680389943 0.064312119040207658 0.048801196578002949 0.062951189491717255
leaf_weight=6.6569784432649639 3.1750377565622321 5.4149720668792716 6.4846520572900763 5.153776749968527 5.126452460885047 8.4101116955280322 4.8807338923215866 5.334032863378523 4.3802015334367752 4.4784066528081885 4.7547725439071682 27.235739924013615 3.2665244191884995 3.6052906066179258 3.3586584478616714 3.2607650756835938
leaf_count=28 13 26 39 21 22 36 23 24 21 27 31 177 19 21 20 20
internal_value=-0.00391831 0.0231397 -0.0208604 -0.0244715 -0.00252195 0.00535317 0.0122078 -0.00411381 0.0107254 -0.0316714 -0.0275846 -0.0326203 -0.0519737 0.0513227 0.058783 0.0636658
internal_weight=104.977 40.421 64.5561 61.3811 15.161 24.7813 10.0345 18.1243 9.71423 46.2201 38.4752 31.9905 7.74493 15.6397 10.2247 6.86606
internal_count=568 196 372 359 66 109 44 81 45 293 247 208 46 87 61 41
is_linear=0
shrinkage=0.05


Tree=25
num_leaves=16
num_cat=0
split_feature=4 5 11 8 8 8 8 3 6 8 11 8 8 8 2
split_gain=29.9452 3.89146 4.69735 2.74748 2.13394 1.58535 1.29595 1.01564 1.89415 1.24857 0.982169 1.13321 0.628054 0.217025 0.182528
threshold=1.0000000180025095e-35 2.5000000000000004 1.0000000180025095e-35 26.138550000000006 30.594800000000003 49.752100000000006 7.7625000000000011 1.0000000180025095e-35 3.5000000000000004 7.2281500000000003 1.0000000180025095e-35 13.250000000000002 38.811450000000001 3.9875000000000003 1.0000000180025095e-35
decision_type=2 2 2 2 2 2 2 2 2 2 2 2 2 2 2
left_child=1 12 -3 7 -5 -6 -4 9 -9 13 -11 -12 14 -2 -1
right_child=3 2 6 4 5 -7 -8 8 -10 10 11 -13 -14 -15 -16
leaf_value=0.047885139575729818 -0.042743038505830652 0.046115558687320174 0.011082058708007598 0.017696722849914314 -0.040691743330089611 0.0018737756249525253 -0.021117798866253281 0.0068195681304849534 -0.039174039852506955 -0.011874537173813541 -0.029575097041864885 -0.061575643499495208 0.062402025150410823 -0.061400522068802615 0.036131107037314474
leaf_weight=6.7845483571290988 2.7849239930510512 8.2698249965906143 7.6027477085590363 6.1308554112911215 4.6671326309442502 4.1172842383384705 5.3053413331508636 4.892745375633238 4.1264040470123291 6.7252052873373023 24.589291900396351 3.1172640025615683 5.3983199000358573 3.5396696850657463 6.436211884021759
leaf_count=34 20 35 34 25 21 20 22 24 22 40 160 21 34 25 35
internal_value=-0.00277083 0.0313561 0.0166959 -0.0237653 -0.00494143 -0.0207411 -0.00215237 -0.0294059 -0.0142232 -0.0327657 -0.029015 -0.0331755 0.048031 -0.053185 0.042163
internal_weight=104.488 39.797 21.1779 64.6908 14.9153 8.78442 12.9081 49.7755 9.01915 40.7564 34.4318 27.7066 18.6191 6.32459 13.2208
internal_count=572 194 91 378 66 41 56 312 46 266 221 181 103 45 69
is_linear=0
shrinkage=0.05


Tree=26
num_leaves=16
num_cat=0
split_feature=4 5 11 8 8 8 8 3 6 8 11 8 8 8 3
split_gain=27.4332 3.73105 4.28456 2.569 1.93417 1.45288 1.17166 0.969402 1.74084 1.21917 0.930492 1.11051 0.640691 0.216543 0.185452
threshold=1.0000000180025095e-35 2.5000000000000004 1.0000000180025095e-35 26.138550000000006 30.594800000000003 49.752100000000006 7.7625000000000011 1.0000000180025095e-35 3.5000000000000004 7.2281500000000003 1.0000000180025095e-35 13.250000000000002 38.811450000000001 3.9875000000000003 1.0000000180025095e-35
decision_type=2 2 2 2 2 2 2 2 2 2 2 2 2 2 2
left_child=1 12 -3 7 -5 -6 -4 9 -9 13 -11 -12 14 -2 -1
right_child=3 2 6 4 5 -7 -8 8 -10 10 11 -13 -14 -15 -16
leaf_value=0.035898942848193997 -0.041792545853790358 0.044159921633454294 0.010497405522558753 0.01684516536122093 -0.039057846029923245 0.0017786790512283974 -0.020132524256491521 0.0064667534766739716 -0.037786991756919477 -0.011359177268518815 -0.028626954944095437 -0.060893817072792178 0.061652886359028047 -0.060740362266383144 0.048063723721730719
leaf_weight=7.6632954478263873 2.7078233212232581 8.2058913558721542 7.6243032813072205 6.1190500706434241 4.6204572767019254 4.1204558461904526 5.2872034013271332 4.9014705866575223 4.065550409257412 6.6799898296594611 24.145000480115417 2.9975904002785674 5.1958475410938254 3.4027024284005165 5.2997318208217621
leaf_count=40 20 35 34 25 21 20 22 24 22 40 160 21 34 25 29
internal_value=-0.00267204 0.0301997 0.0159093 -0.022921 -0.00471466 -0.0198076 -0.00204541 -0.0284537 -0.0135974 -0.0317897 -0.0280763 -0.0321905 0.0468183 -0.0523438 0.0408723
internal_weight=103.036 39.2763 21.1174 63.7601 14.86 8.74091 12.9115 48.9001 8.96702 39.9331 33.8226 27.1426 18.1589 6.11053 12.963
internal_count=572 194 91 378 66 41 56 312 46 266 221 181 103 45 69
is_linear=0
shrinkage=0.05


Tree=27
num_leaves=11
num_cat=0
split_feature=0 1 1 10 1 1 8 5 1 1
split_gain=8.52332 8.21908 4.74109 4.31979 2.42693 2.38422 1.48872 1.42716 0.608037 0.247578
threshold=5.5000000000000009 52.277100000000011 60.389600000000009 1.0000000180025095e-35 7.133350000000001 31.943750000000005 43.116666666666674 2.5000000000000004 135.06665000000001 7.7979000000000012
decision_type=2 2 2 2 2 2 2 2 2 2
left_child=-1 3 -3 4 -2 7 -4 -6 -8 -5
right_child=1 2 6 9 5 -7 8 -9 -10 -11
leaf_value=0.050336720692741768 -0.057868495489759086 0.072678630050624152 -0.012827825950661231 0.012784217826173699 -0.0027782307987671735 -0.047323766557960764 0.039248902554971654 -0.018307375546531598 0.009480550121850808 0.029983493232215393
leaf_weight=7.0803227126598349 3.4640194028615943 4.1389454603195182 4.3484809994697553 4.4497538357973081 24.337755419313908 5.2453350126743308 3.4774738550186157 37.733889393508434 3.3852804154157639 3.9493913650512695
leaf_count=30 30 22 24 24 131 29 21 221 20 20
internal_value=-0.00257645 -0.00653965 0.0269451 -0.0130311 -0.0170542 -0.0149539 0.0100613 -0.0122185 0.0245647 0.0208715
internal_weight=101.611 94.5303 15.3502 79.1801 70.781 67.317 11.2112 62.0716 6.86275 8.39915
internal_count=572 542 87 455 411 381 65 352 41 44
is_linear=0
shrinkage=0.05


Tree=28
num_leaves=15
num_cat=0
split_feature=4 0 0 8 8 11 8 8 1 8 1 0 0 0
split_gain=24.8202 8.49369 3.33893 5.00902 2.98319 4.06086 2.1347 1.41934 2.28093 1.39147 1.27536 0.638906 0.694118 0.51746
threshold=1.0000000180025095e-35 6.5000000000000009 53.000000000000007 26.138550000000006 11.750000000000002 1.0000000180025095e-35 7.2281500000000003 7.7625000000000011 20.089600000000001 30.594800000000003 23.725000000000005 37.500000000000007 25.500000000000004 20.250000000000004
decision_type=2 2 2 2 2 2 2 2 2 2 2 2 2 2
left_child=4 -2 3 6 5 -1 13 8 -7 -5 -8 12 -6 -3
right_child=1 2 -4 9 11 7 10 -9 -10 -11 -12 -13 -14 -15
leaf_value=0.047498731314391765 0.052334027149738796 -0.035649876035310245 -0.071323708275641481 0.023785927869192647 0.038718621914561831 0.041985621368413384 -0.021712449317996235 -0.011141731374393608 -0.0090316896371719895 -0.01006900088925633 -0.051939427895491233 0.032465303552855054 0.066639619528612609 -0.060068188420119344
leaf_weight=8.1770271509885806 3.6238589584827414 3.2437618598341924 3.8865370452404013 5.3753429502248746 3.7571322619914991 4.6958670020103472 28.774146154522896 7.7666673809289923 4.1070003062486649 6.971230536699295 3.9713070988655081 4.6115334331989279 5.4617845863103867 6.552047498524189
leaf_count=36 15 19 23 22 23 20 192 35 20 33 24 27 33 50
internal_value=-0.00246629 -0.0219577 -0.0265383 -0.0233671 0.029061 0.0186664 -0.0315043 0.00443776 0.0181834 0.00467046 -0.0253783 0.0476598 0.0552605 -0.0519824
internal_weight=100.975 62.3982 58.7744 54.8878 38.577 24.7466 42.5413 16.5695 8.80287 12.3466 32.7455 13.8305 9.21892 9.79581
internal_count=572 378 363 340 194 111 285 75 40 55 216 83 56 69
is_linear=0
shrinkage=0.05


Tree=29
num_leaves=15
num_cat=0
split_feature=4 0 0 8 1 8 11 1 1 8 1 0 0 0
split_gain=22.7375 7.76747 3.17586 4.72101 3.30591 2.87397 3.73082 2.03017 1.59643 1.27959 2.04857 0.647791 0.621742 0.683413
threshold=1.0000000180025095e-35 6.5000000000000009 53.000000000000007 17.009033333333338 60.389600000000009 11.750000000000002 1.0000000180025095e-35 23.725000000000005 7.227100000000001 7.7625000000000011 20.089600000000001 31.500000000000004 37.500000000000007 25.500000000000004
decision_type=2 2 2 2 2 2 2 2 2 2 2 2 2 2
left_child=5 -2 3 7 11 6 -1 8 -3 10 -8 -5 13 -7
right_child=1 2 -4 4 -6 12 9 -9 -10 -11 -12 -13 -14 -15
leaf_value=0.045631644629316737 0.049989742675783738 -0.058031988490404307 -0.070092950661112138 0.0061289714197196206 -0.03345338661553509 0.037604437070313468 0.039735728223087949 -0.065149736084337481 -0.023975385073249634 -0.01057964109251619 -0.0085980153369704868 0.03183023259896068 0.031411711061772651 0.065692513803967789
leaf_weight=8.0883017033338565 3.604595646262168 3.8585394248366347 3.7602472156286231 5.1945000886917096 4.5061881989240637 3.6770902276039106 4.7131931334733981 4.0182020962238303 31.800251387059689 7.7702442407608023 4.0986637473106384 4.6431645974516869 4.5300059616565695 5.2684050500392914
leaf_count=36 15 34 23 26 21 23 20 24 213 35 20 22 27 33
internal_value=-0.00238151 -0.0212202 -0.0256626 -0.0225699 0.00201359 0.0279344 0.0177913 -0.0314572 -0.0276606 0.00421149 0.0172542 0.0182594 0.046504 0.0541468
internal_weight=99.5316 61.3857 57.7811 54.0208 14.3439 38.1459 24.6704 39.677 35.6588 16.5821 8.81186 9.83766 13.4755 8.9455
internal_count=572 378 363 340 69 194 111 271 247 75 40 48 83 56
is_linear=0
shrinkage=0.05


Tree=30
num_leaves=16
num_cat=0
split_feature=4 1 5 1 1 8 2 8 1 8 8 8 1 1 1
split_gain=17.9329 7.78763 6.11025 2.34368 2.25618 1.98839 1.83174 3.43931 1.61237 1.30142 0.313992 0.284889 0.528819 0.384643 0.000278572
threshold=1.0000000180025095e-35 52.277100000000011 2.5000000000000004 7.7354000000000012 21.037500000000005 7.2257000000000007 1.5000000000000002 7.7625000000000011 7.910400000000001 7.910400000000001 7.133350000000001 38.811450000000001 25.964600000000004 30.597900000000003 112.07915000000001
decision_type=2 2 2 2 2 2 2 2 2 2 2 2 2 2 2
left_child=2 3 11 10 5 -4 7 -5 -7 -9 -2 12 -1 -14 -13
right_child=1 -3 4 6 -6 8 -8 9 -10 -11 -12 14 13 -15 -16
leaf_value=0.05873336385589456 -0.058163481714180634 0.033240972164214184 0.041726176403930136 0.02338371564091624 -0.021801299563005673 0.024864638672015077 -0.050569764048409904 -0.041204359758990713 -0.01448572740755829 -0.014770652006414848 -0.037449011398272891 0.059379460890025937 0.026538620274549285 0.048853674090828469 0.060071196812283373
leaf_weight=5.2029590159654635 3.2079177498817435 7.7669921293854705 6.2429906129837098 5.576471619307994 4.1478005647659293 5.4447737485170347 3.5495580360293379 5.5005126744508734 4.9880078136920929 30.338114313781261 4.2572106793522835 2.9009920656681052 3.7215549498796463 4.0138392150402069 2.9208797514438629
leaf_count=27 30 36 26 33 20 24 19 42 21 179 30 22 20 27 21
internal_value=0.00370482 -0.0134839 0.0298445 -0.0204058 0.0111987 0.0194068 -0.0160984 -0.013144 0.00605087 -0.0188277 -0.0463504 0.0505411 0.046408 0.0381177 0.0597265
internal_weight=99.7806 60.1968 39.5838 52.4298 20.8236 16.6758 44.9647 41.4151 10.4328 35.8386 7.46513 18.7602 12.9384 7.73539 5.82187
internal_count=577 369 208 333 91 71 273 254 45 221 60 117 74 47 43
is_linear=0
shrinkage=0.05


Tree=31
num_leaves=19
num_cat=0
split_feature=4 5 8 0 0 0 0 5 8 0 0 8 8 0 6 8 8 8
split_gain=16.4297 5.85922 5.66564 4.02015 1.88819 1.7577 1.18418 1.09515 1.67942 2.5595 1.09325 0.81432 0.808789 0.713409 0.622521 0.430029 0.0503866 0.000578147
threshold=1.0000000180025095e-35 2.5000000000000004 17.009033333333338 6.5000000000000009 44.500000000000007 28.250000000000004 43.500000000000007 2.5000000000000004 7.910400000000001 28.250000000000004 32.250000000000007 7.2281500000000003 38.432300000000005 35.500000000000007 2.5000000000000004 12.587500000000002 16.375000000000004 56.56665000000001
decision_type=2 2 2 2 2 2 2 2 2 2 2 2 2 2 2 2 2 2
left_child=1 6 3 -2 12 11 14 13 10 -10 -9 -3 -4 15 16 -5 -1 -18
right_child=2 5 4 7 -6 -7 -8 8 9 -11 -12 -13 -14 -15 -16 -17 17 -19
leaf_value=0.066341876766576241 0.026953554412722208 0.0069435209751952708 0.033080974517608691 -0.045942167904034992 -0.010938303081911724 -0.016740582214331844 0.02414597287810533 -0.026266638341609218 -0.027334649276644193 0.024205046547199308 -0.05866117833759657 0.029355615187914075 0.0060005793208237771 -0.061378306219390714 0.039385136146978028 -0.021070227269429448 0.05987693154817525 0.058882702677483523
leaf_weight=4.5533776581287402 3.6495826989412299 7.9473937302827897 7.0491096749901789 3.3339040875434858 6.6519134417176238 4.5677236020565024 3.6749432384967795 14.397955864667898 5.9468272402882558 4.0489547252655029 3.1796107068657866 8.2708266228437406 4.5284217745065689 3.2396689131855965 4.0924454927444449 3.6301928013563156 2.6986721381545067 3.1913179755210876
leaf_count=25 15 34 33 24 31 21 22 104 41 26 27 36 22 23 25 23 20 25
internal_value=0.00356023 0.0287976 -0.0129372 -0.0231587 0.0102913 0.0106568 0.0495036 -0.0279999 -0.0228211 -0.00645765 -0.0321265 0.018373 0.0224888 -0.0419944 0.0559145 -0.0329771 0.0623919 0.0593382
internal_weight=98.6528 38.9967 59.6561 41.4267 18.2294 20.7859 18.2108 37.7771 27.5733 9.99578 17.5776 16.2182 11.5775 10.2038 14.5358 6.9641 10.4434 5.88999
internal_count=577 208 369 283 86 91 117 268 198 67 131 70 55 70 95 47 70 45
is_linear=0
shrinkage=0.05


Tree=32
num_leaves=15
num_cat=0
split_feature=4 1 0 5 6 0 1 1 0 0 6 6 1 0
split_gain=15.0638 6.78521 5.85871 5.61301 2.35799 2.74858 1.99719 1.98252 1.54247 1.16205 0.624028 0.582412 0.0431684 9.09434e-05
threshold=1.0000000180025095e-35 52.277100000000011 3.5000000000000004 2.5000000000000004 2.5000000000000004 20.250000000000004 21.037500000000005 7.7354000000000012 27.500000000000004 43.500000000000007 2.5000000000000004 1.5000000000000002 31.943750000000005 29.500000000000004
decision_type=2 2 2 2 2 2 2 2 2 2 2 2 2 2
left_child=3 2 -2 9 5 -4 8 -7 11 10 12 -5 -1 -14
right_child=1 -3 4 6 -6 7 -8 -9 -10 -11 -12 -13 13 -15
leaf_value=0.065130121120430678 0.053317527418557303 0.030949500754498666 0.015468477454406085 0.018466858837257741 -0.056844561805822084 -0.050184112416678986 -0.02106116418281689 -0.019069578648689786 -0.0022020050998953571 0.023254154846305219 0.038299303472609514 0.042017210917103164 0.058772340043453566 0.05835923274868015
leaf_weight=4.7214601784944552 2.6496794521808615 7.8126066923141471 4.9960856288671485 5.6472877711057716 4.6614761129021636 6.0675079226493827 4.111169457435607 32.767606034874916 6.0802017301321021 3.6263478547334662 4.000414013862609 4.9059160202741623 2.6470816656947136 2.6821473017334938
leaf_count=27 11 36 33 24 29 53 20 207 27 22 25 20 21 22
internal_value=0.00342602 -0.0124499 -0.0190797 0.0277861 -0.0230355 -0.0194399 0.0101446 -0.0239308 0.0178576 0.0484885 0.0550011 0.0294148 0.0616488 0.0585644
internal_weight=97.377 58.955 51.1424 38.422 48.4927 43.8312 20.7446 38.8351 16.6334 17.6775 14.0511 10.5532 10.0507 5.32923
internal_count=577 369 333 208 322 293 91 260 71 117 95 44 70 43
is_linear=0
shrinkage=0.05


Tree=33
num_leaves=15
num_cat=0
split_feature=4 1 5 0 1 1 1 1 0 0 6 6 1 0
split_gain=13.8009 6.16112 5.37761 2.85312 1.80658 1.68616 2.32871 1.61899 1.39334 1.14126 0.626652 0.524193 0.0359594 7.63883e-05
threshold=1.0000000180025095e-35 52.277100000000011 2.5000000000000004 6.5000000000000009 21.037500000000005 31.331250000000001 29.850000000000005 7.7354000000000012 27.500000000000004 43.500000000000007 2.5000000000000004 1.5000000000000002 31.943750000000005 29.500000000000004
decision_type=2 2 2 2 2 2 2 2 2 2 2 2 2 2
left_child=2 3 9 -2 8 6 7 -5 11 10 12 -4 -1 -14
right_child=1 -3 4 5 -6 -7 -8 -9 -10 -11 -12 -13 13 -15
leaf_value=0.06418786183983087 0.024403567366233368 0.029228286037363611 0.017565349555973261 -0.044086700204767543 -0.020139609074921454 -0.053267362115929633 0.024932693940105163 -0.017371383499379073 -0.0020920413828039758 0.022388136559967645 0.037237657822123349 0.03991354617449093 0.058273013925924433 0.057886394294268589
leaf_weight=4.5554394572973269 3.6200064271688452 7.8578381389379492 5.6404447853565269 6.8332727700471869 4.0850073397159568 3.8727411553263655 2.8401314318180075 33.342435620725155 6.079814910888671 3.5795072466135016 3.9110413119196883 4.906234547495842 2.5390101745724678 2.5716488659381866
leaf_count=27 15 36 24 60 20 23 12 223 27 22 25 20 21 22
internal_value=0.00329387 -0.0119577 0.0268012 -0.0183652 0.00965222 -0.0216671 -0.0188221 -0.0219152 0.0169719 0.0475034 0.0541249 0.0279616 0.0609577 0.0580785
internal_weight=96.2346 58.3664 37.8681 50.5086 20.7115 46.8886 43.0158 40.1757 16.6265 17.1566 13.5771 10.5467 9.6661 5.11066
internal_count=577 369 208 333 91 318 295 283 71 117 95 44 70 43
is_linear=0
shrinkage=0.05


Tree=34
num_leaves=16
num_cat=0
split_feature=4 1 5 1 2 1 1 1 3 1 1 1 1 1 1
split_gain=12.6443 5.59794 5.14884 1.99745 1.83397 1.63444 1.47339 1.59367 1.27365 1.132 0.296888 0.675787 0.294916 0.237963 0.000576441
threshold=1.0000000180025095e-35 52.277100000000011 2.5000000000000004 7.7354000000000012 1.5000000000000002 21.037500000000005 30.597900000000003 26.266650000000002 1.0000000180025095e-35 7.910400000000001 29.850000000000005 25.527100000000001 126.82500000000002 7.133350000000001 79.02500000000002
decision_type=2 2 2 2 2 2 2 2 2 2 2 2 2 2 2
left_child=2 3 10 13 6 8 7 -5 9 -4 11 -1 14 -2 -12
right_child=1 -3 5 4 -6 -7 -8 -9 -10 -11 12 -13 -14 -15 -16
leaf_value=0.053014114155075689 -0.05557962362379424 0.027620881868270095 0.021675099499070455 -0.012545488992597215 -0.049231574695093178 -0.019255649139935306 -0.038959821926045607 0.014606677432300947 0.036935274107891609 -0.00973627831711198 0.059042269253741154 0.023703875833806065 0.038231362359541998 -0.035966273411387577 0.058060012137523723
leaf_weight=4.2757131606340435 2.461685322225093 7.8982909321784964 6.1066053211689049 29.08380077034235 3.362134911119937 4.0595722943544379 4.1546631082892409 6.6374936997890464 5.1002001613378516 5.4085694253444672 3.8183524832129461 3.6414201855659485 2.4601782634854317 4.1596833541989326 2.4533002823591232
leaf_count=25 28 36 27 203 19 20 22 29 21 23 30 21 20 32 21
internal_value=0.00316844 -0.011489 0.0258504 -0.0176844 -0.0137681 0.00918549 -0.010778 -0.00750025 0.0161344 0.00692147 0.0465451 0.0395331 0.0529029 -0.0432581 0.058658
internal_weight=95.0817 57.7578 37.3239 49.8595 43.2381 20.6749 39.876 35.7213 16.6154 11.5152 16.649 7.91713 8.73183 6.62137 6.27165
internal_count=577 369 208 333 273 91 254 232 71 50 117 46 71 60 51
is_linear=0
shrinkage=0.05


Tree=35
num_leaves=17
num_cat=0
split_feature=4 0 5 1 0 8 0 11 0 1 0 8 0 0 0 1
split_gain=8.99691 8.15161 6.57217 4.364 3.71692 3.52246 3.75968 4.09556 3.727 1.67937 3.47076 1.58654 2.44249 0.853348 0.47241 0.0201986
threshold=1.0000000180025095e-35 3.5000000000000004 2.5000000000000004 7.8875000000000011 50.500000000000007 7.7354000000000012 30.250000000000004 1.0000000180025095e-35 33.500000000000007 14.200000000000001 25.500000000000004 7.2812500000000009 27.500000000000004 43.500000000000007 26.500000000000004 30.597900000000003
decision_type=2 2 2 2 2 2 2 2 2 2 2 2 2 2 2 2
left_child=2 -2 13 -4 5 9 7 -7 -8 10 -3 12 -5 14 -1 -16
right_child=1 4 3 11 -6 6 8 -9 -10 -11 -12 -13 -14 -15 15 -17
leaf_value=0.039513344009115194 0.066480340061047805 0.019106393583532805 0.039100057100036285 -0.002890059665759255 -0.062515466960785651 0.019253461590252808 0.059309241161483922 -0.029578251627593834 -0.00082205902239640004 -0.06452955549999842 -0.048596392819167993 0.0087221395557591092 -0.052735750387761973 0.023680467586600692 0.063406348746067667 0.057743374756425686
leaf_weight=4.6371809095144254 3.0338926613330832 2.9343349859118444 5.5599824488163021 5.6921461671590787 4.2706610336899749 5.6173157989978817 3.5129467844963065 18.225279398262501 9.6710211858153325 3.8553271368145934 5.3342516124248505 5.6510890275239936 4.3249980360269547 3.6415682882070533 3.1122220158576965 3.1870803833007812
leaf_count=33 13 22 25 24 26 30 21 125 56 27 49 24 21 22 19 28
internal_value=-0.000810373 -0.0132451 0.0187952 0.00104354 -0.0177728 -0.0138852 -0.00622578 -0.0180735 0.0152003 -0.037277 -0.0245702 -0.0124611 -0.0244114 0.0446446 0.0516252 0.0605412
internal_weight=92.2613 56.455 35.8063 21.2282 53.4211 49.1505 37.0266 23.8426 13.184 12.1239 8.26859 15.6682 10.0171 14.5781 10.9365 6.2993
internal_count=565 369 196 94 356 330 232 155 77 98 71 69 45 102 80 47
is_linear=0
shrinkage=0.05


Tree=36
num_leaves=16
num_cat=0
split_feature=4 5 0 1 0 0 0 11 1 1 2 0 6 0 1
split_gain=8.24524 6.17774 5.96032 3.97412 3.46846 3.00433 3.86975 2.88416 1.95115 1.67222 1.34245 0.839959 0.673538 0.579415 0.0179059
threshold=1.0000000180025095e-35 2.5000000000000004 6.5000000000000009 7.8875000000000011 50.500000000000007 30.250000000000004 33.500000000000007 1.0000000180025095e-35 26.266650000000002 7.7979000000000012 1.0000000180025095e-35 43.500000000000007 2.5000000000000004 27.500000000000004 31.943750000000005
decision_type=2 2 2 2 2 2 2 2 2 2 2 2 2 2 2
left_child=1 11 -2 -3 5 7 -7 13 -8 -9 -5 12 14 -4 -1
right_child=2 3 4 10 -6 6 8 9 -10 -11 -12 -13 -14 -15 -16
leaf_value=0.061949700921357036 0.046731716274238257 0.03750194078977221 0.015095578882561892 0.0032609252597215477 -0.061016809319737103 0.048321276941107071 -0.028093003327703859 0.00016368577451429724 0.013338674165738838 -0.037396813829078827 -0.026098888321703886 0.022801078295218033 0.032767854357752278 -0.0097711146093321585 0.056909803315443631
leaf_weight=3.8177249133586866 3.9174995869398108 5.5084028095006969 4.1571888327598554 7.5379793047904959 4.1596134006977072 3.8340670615434638 6.3932790011167508 3.4976051077246693 5.1151563674211502 19.396732144057751 8.0527597367763502 3.5941461697220793 3.4808035120368004 5.3667200356721878 3.2734724432229996
leaf_count=25 17 25 21 32 26 23 52 34 24 137 37 22 24 35 31
internal_value=-0.000785209 0.0181424 -0.0127392 0.000994756 -0.0172264 -0.0134126 0.00481603 -0.0220397 -0.00967786 -0.0316586 -0.0119037 0.0436822 0.0507811 0.0010832 0.0596232
internal_weight=91.1032 35.2653 55.8379 21.0991 51.9204 47.7607 15.3425 32.4182 11.5084 22.8943 15.5907 14.1661 10.572 9.52391 7.0912
internal_count=565 196 369 94 352 326 99 227 76 171 69 102 80 56 56
is_linear=0
shrinkage=0.05


Tree=37
num_leaves=16
num_cat=0
split_feature=4 0 6 0 8 0 11 0 8 11 6 0 0 0 0
split_gain=7.5509 6.98761 5.54577 3.26306 3.39429 3.09143 3.55067 2.83038 2.14618 2.18813 1.96292 4.15219 0.914508 0.804096 0.169728
threshold=1.0000000180025095e-35 3.5000000000000004 4.5000000000000009 50.500000000000007 7.7354000000000012 30.250000000000004 1.0000000180025095e-35 33.500000000000007 8.6749833333333353 1.0000000180025095e-35 2.5000000000000004 25.500000000000004 25.500000000000004 43.500000000000007 30.250000000000004
decision_type=2 2 2 2 2 2 2 2 2 2 2 2 2 2 2
left_child=2 -2 8 4 10 6 -6 -7 9 -1 11 -3 -10 14 -14
right_child=1 3 -4 -5 5 7 -8 -9 12 -11 -12 -13 13 -15 -16
leaf_value=0.03072417363231375 0.062613834737939952 0.030264901362792564 -0.037292638683177969 -0.059581025234939272 0.018150940331762049 0.05102574183627067 -0.027429517652789226 -0.00044270836413224588 0.019571007137253779 -0.006997480157157579 -0.064042642404297648 -0.047702506839645512 0.064774831279847372 0.02673854361268448 0.04914034138260534
leaf_weight=7.5759607553482056 2.9506144076585761 2.5870248749852163 4.0771130993962279 4.049668237566947 5.6457147449255016 3.7027065381407729 17.567354381084442 9.5882238000631315 4.6669134423136702 7.8051768988370913 4.1211481913924217 5.0234412327408791 3.0450853481888753 3.5619890838861465 4.0376255884766579
leaf_count=34 13 20 22 26 30 21 125 56 31 34 30 48 23 22 30
internal_value=-0.000757312 -0.0122474 0.0174961 -0.0164721 -0.0128528 -0.00533367 -0.0163438 0.0138958 0.024774 0.0115823 -0.0362494 -0.0211991 0.0380256 0.0461166 0.0558621
internal_weight=90.0058 55.2359 34.7699 52.2853 48.2356 36.504 23.2131 13.2909 30.6928 15.3811 11.7316 7.61047 15.3116 10.6447 7.08271
internal_count=565 369 196 356 330 232 155 77 174 68 98 68 106 75 53
is_linear=0
shrinkage=0.05


Tree=38
num_leaves=16
num_cat=0
split_feature=4 5 0 1 0 0 0 11 5 1 2 0 1 2 1
split_gain=6.90692 5.62911 5.02313 3.56125 3.05276 2.53511 7.60016 2.53478 2.23088 1.5324 1.16395 0.830453 0.56824 0.478871 0.0125824
threshold=1.0000000180025095e-35 2.5000000000000004 6.5000000000000009 7.8875000000000011 50.500000000000007 30.250000000000004 32.250000000000007 1.0000000180025095e-35 1.5000000000000002 7.7979000000000012 1.0000000180025095e-35 43.500000000000007 23.725000000000005 1.0000000180025095e-35 30.597900000000003
decision_type=2 2 2 2 2 2 2 2 2 2 2 2 2 2 2
left_child=1 11 -2 -3 5 7 -7 12 -8 -9 -5 13 -4 14 -1
right_child=2 3 4 10 -6 6 8 9 -10 -11 -12 -13 -14 -15 -16
leaf_value=0.061443247771996196 0.043490587927214643 0.035492537631786572 0.011724325312622439 0.0024683035106708873 -0.058202018111725588 0.075348248458801059 0.011685600572457149 0.00075638210135786838 -0.031397918800467939 -0.035454824576439906 -0.024963034342522599 0.021100238737932167 -0.01304288432797787 0.037343155709981979 0.056589016496019634
leaf_weight=3.1285404041409475 3.8232843130826941 5.414234101772311 5.4269978180527705 7.5297842621803266 3.9411116167902938 3.0217848718166342 5.2125014141201955 3.4656539708375957 7.0936595723032951 18.612226352095604 7.9497782588005066 3.5001054853200904 4.0398141443729401 4.502590499818325 2.3285032957792282
leaf_count=21 17 25 37 32 26 16 26 34 57 137 37 22 19 36 23
internal_value=-0.000733536 0.0168335 -0.011779 0.000588697 -0.0159375 -0.0123838 0.00429746 -0.0204895 -0.0131491 -0.0297706 -0.0116195 0.0420505 0.00115531 0.0494131 0.059372
internal_weight=88.9906 34.3535 54.637 20.8938 50.8137 46.8726 15.3279 31.5447 12.3062 22.0779 15.4796 13.4597 9.46681 9.95963 5.45704
internal_count=565 196 369 94 352 326 99 227 83 171 69 102 56 80 44
is_linear=0
shrinkage=0.05


Tree=39
num_leaves=12
num_cat=0
split_feature=6 0 1 0 0 0 10 0 1 0 0
split_gain=6.89385 10.354 2.52248 2.47249 2.42498 2.2103 1.75002 1.62725 1.01973 0.217547 0.0649687
threshold=4.5000000000000009 8.5000000000000018 52.277100000000011 25.500000000000004 45.250000000000007 45.250000000000007 1.0000000180025095e-35 30.250000000000004 89.55210000000001 17.500000000000004 54.500000000000007
decision_type=2 2 2 2 2 2 2 2 2 2 2
left_child=1 -1 4 -4 6 8 7 -3 -5 -2 -6
right_child=9 2 3 5 10 -7 -8 -9 -10 -11 -12
leaf_value=0.068148876870401984 -0.058381754533681607 -0.011095377668860415 -0.01907142109673686 0.069157563073866876 -0.041912612580053882 -0.00043937467189363288 0.023151794181432202 0.0088617666370235399 0.0281435436429423 -0.040426339159611191 -0.031248944627742734
leaf_weight=5.7260050550103179 3.3217079266905776 36.967199333012104 3.2397300675511351 3.1857137605547887 2.9517666697502127 3.4553355574607849 5.9127251803874961 14.113616041839121 2.890663668513298 3.4277519658207893 2.767523281276226
leaf_count=28 19 247 19 20 22 19 35 93 22 23 18
internal_value=-0.00070844 0.00332697 -0.00159022 0.0186639 -0.00571497 0.0314898 -0.00260035 -0.00558122 0.0496463 -0.049263 -0.0367525
internal_weight=87.9597 81.2103 75.4843 12.7714 62.7128 9.53171 56.9935 51.0808 6.07638 6.74946 5.71929
internal_count=565 523 495 80 415 61 375 340 42 42 40
is_linear=0
shrinkage=0.05


Tree=40
num_leaves=16
num_cat=0
split_feature=1 1 0 4 4 5 1 5 0 1 1 1 2 0 0
split_gain=6.2672 5.07712 4.13887 2.95877 2.52679 3.80744 2.35783 1.62875 2.21089 2.00603 1.53508 1.34015 0.838855 0.727081 0.115672
threshold=52.277100000000011 60.389600000000009 6.5000000000000009 1.0000000180025095e-35 1.0000000180025095e-35 2.5000000000000004 7.8875000000000011 1.5000000000000002 31.500000000000004 19.379150000000003 15.075000000000001 7.7354000000000012 1.0000000180025095e-35 29.500000000000004 28.250000000000004
decision_type=2 2 2 2 2 2 2 2 2 2 2 2 2 2 2
left_child=2 -2 -1 13 5 12 -7 8 -6 11 -8 -9 -4 -3 -11
right_child=1 3 4 -5 7 6 10 9 -10 14 -12 -13 -14 -15 -16
leaf_value=0.032602778782719791 0.083494208369585821 0.019397528340843427 0.048674392294218022 -0.012138790974202993 -0.029048308551459973 0.013154611803807035 -0.042738866662036579 -0.039518143899895213 0.024122661104572587 -0.05920525115675556 -0.0042716862256024068 -0.011985548983520396 0.013859600441709672 0.056669007681060216 -0.044392676671876491
leaf_weight=6.1005818024277678 3.3412718400359145 2.375592537224291 3.9322728514671352 5.6372212022542953 3.3403957784175855 6.5288780629634884 5.6706847250461561 5.5442017801106003 4.7141025587916374 2.422162950038909 4.7794075459241867 21.792345434427261 3.0896781459450722 2.9129543527960777 2.891116127371788
leaf_count=29 21 22 27 27 18 30 24 54 25 20 23 166 21 29 20
internal_value=-0.000674995 0.0295578 -0.00676676 0.0130632 -0.0104786 0.00238877 -0.0104182 -0.0180658 0.00207137 -0.0230335 -0.0251457 -0.0175695 0.0333558 0.0399268 -0.0511453
internal_weight=85.0729 14.267 70.8058 10.9258 64.7052 24.0009 16.979 40.7043 8.0545 32.6498 10.4501 27.3365 7.02195 5.28855 5.31328
internal_count=556 99 457 78 428 125 77 303 43 260 47 220 48 51 40
is_linear=0
shrinkage=0.05


Tree=41
num_leaves=14
num_cat=0
split_feature=6 0 5 0 2 0 0 0 11 0 0 5 0
split_gain=5.33605 7.92299 4.5458 3.8388 2.86266 2.01561 2.66244 2.35111 2.22394 1.66737 1.10291 0.405349 0.404084
threshold=4.5000000000000009 8.5000000000000018 1.5000000000000002 29.500000000000004 1.0000000180025095e-35 33.500000000000007 39.500000000000007 28.250000000000004 1.0000000180025095e-35 24.500000000000004 44.500000000000007 2.5000000000000004 31.500000000000004
decision_type=2 2 2 2 2 2 2 2 2 2 2 2 2
left_child=1 -1 3 9 10 7 -7 8 -4 -3 -5 -8 -9
right_child=-2 2 5 4 -6 6 11 12 -10 -11 -12 -13 -14
leaf_value=0.064676653666450937 -0.047161158230020359 0.02148287948998134 0.0070251594204687115 0.039737677878304657 0.073271835805454169 -0.061170093885921831 0.0048252855955079853 0.0092759646781204515 -0.019566430000415396 -0.024508024925609634 0.0025135503430948822 -0.020713439847730664 0.030798998648719947
leaf_weight=4.8473437130451194 5.744993917644023 3.1862496659159678 12.171051017940043 3.8304854184389097 3.7712817415595055 3.9364708662033063 2.9451889619231224 4.957709424197672 22.21244652569294 5.1659044623374939 4.1412371322512627 3.2885686457157135 3.8932822048664093
leaf_count=25 36 23 69 29 27 31 22 30 162 32 22 26 22
internal_value=-0.000648726 0.00276191 -0.00132139 0.0189497 0.0373799 -0.00894899 -0.0289768 -0.00423777 -0.0101536 -0.00696303 0.0204001 -0.00864746 0.0187433
internal_weight=84.0922 78.3472 73.4999 20.0952 11.743 53.4047 10.1702 43.2345 34.3835 8.35215 7.97172 6.23376 8.85099
internal_count=556 520 495 133 78 362 79 283 231 55 51 48 52
is_linear=0
shrinkage=0.05


Tree=42
num_leaves=17
num_cat=0
split_feature=8 0 4 0 4 5 0 11 0 0 0 8 0 8 8 0
split_gain=7.26332 4.04071 2.81475 3.00059 2.52168 2.33747 1.62934 1.61638 1.37752 3.96539 1.78005 1.67107 0.293423 0.069627 0.0118777 0.00393721
threshold=15.300000000000002 6.5000000000000009 1.0000000180025095e-35 31.500000000000004 1.0000000180025095e-35 2.5000000000000004 21.500000000000004 1.0000000180025095e-35 32.250000000000007 28.250000000000004 41.500000000000007 6.2437500000000012 25.500000000000004 30.594800000000003 7.910400000000001 39.500000000000007
decision_type=2 2 2 2 2 2 2 2 2 2 2 2 2 2 2 2
left_child=1 -1 12 13 5 -3 -7 -8 9 11 14 -6 -2 -4 -10 -14
right_child=2 4 3 -5 8 6 7 -9 10 -11 -12 -13 15 -15 -16 -17
leaf_value=0.029678667827745288 0.03462158039894863 0.026581620142036206 -0.0055824185174615697 0.032638408659998362 0.0074758209449693885 -0.034985739898693198 0.021306275663902068 -0.015662996563465273 -0.05676330805958453 0.025232255643616915 -0.012017968087783725 -0.033423999393380768 0.055362839633415366 -0.015022646848392491 -0.06169247469301551 0.05825982309955733
leaf_weight=5.8628997504711142 2.2225240021944073 5.6417733728885677 3.739431448280814 8.2994514256715757 2.9621051698923209 4.8720390200614956 4.9394360333681151 7.3655870854854522 2.1591967083513719 4.4979946762323371 3.2597378976643085 15.919418305158613 2.7392361164093018 4.089092344045639 2.8161633908748627 2.0509851351380348
leaf_count=28 21 38 21 39 26 22 23 34 23 28 30 134 32 20 19 18
internal_value=-0.000621643 -0.00976069 0.0231914 0.0116925 -0.0140086 -0.00134146 -0.0105127 -0.000822931 -0.0231515 -0.0169572 -0.0407372 -0.0270077 0.0496367 -0.0105134 -0.0595533 0.0566032
internal_weight=83.4371 60.2964 23.1407 16.128 54.4335 22.8188 17.1771 12.305 31.6146 23.3795 8.2351 18.8815 7.01275 7.82852 4.97536 4.79022
internal_count=556 405 151 80 377 117 79 57 260 188 72 160 71 41 42 50
is_linear=0
shrinkage=0.05


Tree=43
num_leaves=15
num_cat=0
split_feature=8 6 6 1 8 8 11 1 1 7 1 8 3 8
split_gain=6.63758 3.78942 6.8003 3.56824 1.23474 1.77518 2.85645 1.44661 1.16314 0.88867 1.01482 0.810755 0.32178 0.0973381
threshold=15.300000000000002 4.5000000000000009 2.5000000000000004 14.200000000000001 54.702783333333343 30.594800000000003 1.0000000180025095e-35 112.07915000000001 19.379150000000003 1.0000000180025095e-35 9.4166500000000024 26.138550000000006 1.5000000000000002 26.918050000000004
decision_type=2 2 2 2 2 2 2 2 2 2 2 2 2 2
left_child=1 2 3 9 5 11 -7 -6 -5 -1 -11 -2 -4 -13
right_child=4 -3 12 8 7 6 -8 -9 -10 10 -12 13 -14 -15
leaf_value=0.017924535934274326 0.0082547237760753189 -0.050252340114799871 0.025492396766847593 -0.060756042954652124 0.071006307730881402 0.02527279593547185 -0.038354083436836772 0.018169253833211853 -0.022960583507663557 -0.014419420612753562 0.0060093254879778884 0.032428275441819775 0.044393431920510602 0.04396278469311133
leaf_weight=3.2444156035780898 3.2589515298605019 5.1808867380022994 6.2124976292252523 4.4695311784744245 2.5100220143795005 3.9304419308900833 3.200134076178073 2.6770892962813377 3.7380927205085754 25.203018307685852 8.0116738528013212 3.631612204015255 3.5320048108696938 3.6849577054381371
leaf_count=18 26 33 37 26 19 25 19 22 26 189 56 18 20 22
internal_value=-0.000600627 -0.00939177 -0.00550114 -0.0137573 0.0222832 0.0159981 -0.00328234 0.0437369 -0.0435424 -0.00705211 -0.00949183 0.0289981 0.0323433 0.0382376
internal_weight=82.4853 59.5921 54.4112 44.6667 22.8932 17.7061 7.13058 5.18711 8.20762 36.4591 33.2147 10.5755 9.7445 7.31657
internal_count=556 405 372 315 151 110 44 41 52 263 245 66 57 40
is_linear=0
shrinkage=0.05


Tree=44
num_leaves=17
num_cat=0
split_feature=8 4 2 8 4 5 1 1 1 1 1 1 3 1 1 8
split_gain=6.0331 2.87475 3.14422 4.54813 2.80475 1.82927 1.60344 1.1941 2.50786 0.861328 0.902977 0.86585 0.771996 0.504163 0.391439 0.00156356
threshold=15.300000000000002 1.0000000180025095e-35 1.5000000000000002 6.380113636363637 1.0000000180025095e-35 2.5000000000000004 60.389600000000009 7.8875000000000011 15.372900000000001 14.200000000000001 23.725000000000005 7.910400000000001 1.0000000180025095e-35 29.850000000000005 126.82500000000002 38.811450000000001
decision_type=2 2 2 2 2 2 2 2 2 2 2 2 2 2 2 2
left_child=1 5 3 -3 14 12 13 -7 -9 11 -11 -5 -1 -6 15 -2
right_child=4 2 -4 9 6 7 -8 8 -10 10 -12 -13 -14 -15 -16 -17
leaf_value=0.0096910420894772906 0.056996176126485047 0.034937196588000215 -0.070608650692103134 -0.027681154842629466 0.0089833376822661647 0.013741716833396643 -0.012005091011460387 -0.032494352384901212 0.011791882039258766 -0.059031305059661823 -0.019349932550364411 -0.0074781429893283433 0.045641352280236705 0.030883502729840435 0.029061910126640264 0.055144188963351028
leaf_weight=2.9439816921949413 2.9078041091561344 4.1106834448874023 2.6691291183233252 9.9210217334330135 4.6615245714783686 6.5144675672054317 5.4460504353046408 7.0862977057695371 5.824026420712471 2.7988901734352103 2.9391401335597038 11.394190318882464 3.030512273311615 6.0239677354693413 1.8269090726971624 1.8742629848420618
leaf_count=21 29 33 20 93 25 30 25 30 29 23 19 86 21 30 19 23
internal_value=-0.000576747 -0.00898152 -0.0185255 -0.0140647 0.0213152 0.00373154 0.0100757 -0.00371013 -0.0125162 -0.0215104 -0.0387057 -0.0168815 0.0279265 0.0213296 0.0487491 0.0562703
internal_weight=81.9729 59.2323 33.8331 31.1639 22.7405 25.3993 16.1315 19.4248 12.9103 27.0532 5.73803 21.3152 5.97449 10.6855 6.60898 4.78207
internal_count=556 405 274 254 151 131 80 89 59 221 42 179 42 55 71 52
is_linear=0
shrinkage=0.05


Tree=45
num_leaves=20
num_cat=0
split_feature=4 8 1 0 1 1 8 0 11 1 8 1 1 1 0 11 8 8 1
split_gain=3.62102 3.22509 3.06813 2.76347 1.74949 5.23235 2.98165 2.82434 1.48204 1.14463 3.15287 1.03299 0.865639 0.400239 0.233989 0.220613 0.162695 0.000593502 0.000474492
threshold=1.0000000180025095e-35 11.750000000000002 7.7354000000000012 49.500000000000007 26.775000000000002 52.277100000000011 7.8875000000000011 30.250000000000004 1.0000000180025095e-35 20.787500000000005 7.5083000000000011 8.0937500000000018 29.850000000000005 126.82500000000002 26.500000000000004 1.0000000180025095e-35 16.375000000000004 38.811450000000001 7.0521000000000003
decision_type=2 2 2 2 2 2 2 2 2 2 2 2 2 2 2 2 2 2 2
left_child=1 8 15 4 6 16 14 -8 11 10 -10 -1 -3 17 -4 -2 -6 -14 -17
right_child=2 12 3 -5 5 -7 7 -9 9 -11 -12 -13 13 -15 -16 18 -18 -19 -20
leaf_value=0.034250527432620102 -0.034124166287235615 0.016475231204952822 0.044326192019272792 -0.04336925850686485 -0.038206225234282458 0.015807559201832744 -0.018733692283829779 0.021014663056309831 0.033471250638729327 -0.027908078413206795 -0.022294301102866693 -0.00050822598921599987 0.056080221506108488 0.026460063464981299 0.02531995417473076 -0.054457437941590761 -0.053132961868941654 0.054837159706548372 -0.055652922390124038
leaf_weight=4.2801743447780591 2.0292858555912971 3.9874511361122114 3.0162054970860508 4.6849722713232032 3.4555579051375371 6.3938349485397339 12.843723215162756 6.8539859876036635 4.3024630248546618 5.2941107526421538 6.1686245575547218 4.269841767847538 2.3363918960094456 1.6814027726650236 3.4966682195663452 1.6739639267325395 3.8699183762073517 1.6302502341568468 1.646286606788635
leaf_count=22 17 26 19 30 23 30 103 45 19 32 28 19 25 18 26 23 19 21 19
internal_value=-0.00276896 0.00983105 -0.0113306 -0.00704027 -0.00277779 -0.0172438 0.0047941 -0.00490291 0.000130098 -0.00896055 0.000619195 0.0168922 0.0343115 0.0469036 0.034122 -0.0471121 -0.0460918 0.0555693 -0.0550502
internal_weight=83.9151 33.9507 49.9644 44.6149 39.9299 13.7193 26.2106 19.6977 24.3152 15.7652 10.4711 8.55002 9.6355 5.64804 6.51287 5.34954 7.32548 3.96664 3.32025
internal_count=564 210 354 295 265 72 193 148 120 79 47 41 90 64 45 59 42 46 42
is_linear=0
shrinkage=0.05


Tree=46
num_leaves=15
num_cat=0
split_feature=6 0 4 1 1 5 1 0 1 0 8 0 11 1
split_gain=4.54681 7.91699 3.59787 3.88685 2.72275 3.259 2.6077 2.03839 1.92 1.36545 1.08256 0.862168 0.22653 0.000403195
threshold=4.5000000000000009 8.5000000000000018 1.0000000180025095e-35 15.745850000000003 7.7354000000000012 2.5000000000000004 7.8875000000000011 27.500000000000004 15.525000000000002 42.500000000000007 7.977100000000001 49.500000000000007 1.0000000180025095e-35 7.0521000000000003
decision_type=2 2 2 2 2 2 2 2 2 2 2 2 2 2
left_child=1 -1 3 6 12 11 -3 -5 -7 -9 -8 -6 -4 -14
right_child=-2 2 4 7 5 8 10 9 -10 -11 -12 -13 13 -15
leaf_value=0.062580534104191066 -0.045365806254455618 0.017271513598935657 -0.033232478651022038 0.0035655655204407319 -0.015706459936769068 0.0013740006361305443 -0.041141714202968548 0.060318790175187542 0.047687113226717461 0.013646065733220143 -0.00617235070289092 -0.040749820989567517 -0.054222413086328247 -0.055349629745620216
leaf_weight=4.8223386630415908 5.797259457409381 6.9714523255825069 1.9807959049940107 4.0614850968122465 18.293912306427959 14.647013969719412 4.4152408391237241 5.603702362626791 2.641436628997325 2.1754414215683937 4.4375601559877396 4.2317247688770285 1.5990510247647756 1.5743599906563757
leaf_count=26 37 33 17 31 105 116 19 51 19 18 24 26 23 19
internal_value=-0.00265491 0.000541847 -0.00357709 0.0106107 -0.0123055 -0.0078788 -0.0056011 0.0322767 0.00845001 0.0472667 -0.023613 -0.0204112 -0.0465002 -0.0547816
internal_weight=83.2528 77.4555 72.6332 27.6649 44.9683 39.8141 15.8243 11.8406 17.2885 7.77914 8.8528 22.5256 5.15421 3.17341
internal_count=564 527 501 176 325 266 76 100 135 69 43 131 59 42
is_linear=0
shrinkage=0.05


Tree=47
num_leaves=11
num_cat=0
split_feature=6 0 4 0 0 8 6 0 8 0
split_gain=4.17871 7.33399 3.27503 2.23368 1.76466 1.62205 1.8343 1.03936 2.3892 0.933647
threshold=4.5000000000000009 8.5000000000000018 1.0000000180025095e-35 18.500000000000004 49.500000000000007 11.750000000000002 2.5000000000000004 20.250000000000004 7.7354000000000012 37.500000000000007
decision_type=2 2 2 2 2 2 2 2 2 2
left_child=1 -1 3 -3 7 6 -5 -4 -9 -7
right_child=-2 2 4 5 -6 9 -8 8 -10 -11
leaf_value=0.061034503985332667 -0.043850411460412513 -0.02440540038846549 0.012920617238458649 -0.0045556296124534745 -0.040971847010376157 0.049089029189778748 0.033314816886371154 -0.040238544847686922 -0.005518578836834544 0.014626268067597174
leaf_weight=4.7003770992159835 5.700228050351142 3.9891782850027111 5.0068128034472457 10.878265313804151 4.6365123316645613 4.5799178406596166 4.5285984352231017 5.9721936360001555 29.088301606476307 3.4424481764435768
leaf_count=26 37 21 37 52 32 48 23 64 192 32
internal_value=-0.00254545 0.000519376 -0.00342454 0.0101803 -0.0117689 0.0160691 0.00657578 -0.00838957 -0.0114328 0.0343008
internal_weight=82.5228 76.8226 72.1222 27.4184 44.7038 23.4292 15.4069 40.0673 35.0605 8.02237
internal_count=564 527 501 176 325 155 75 293 256 80
is_linear=0
shrinkage=0.05


Tree=48
num_leaves=12
num_cat=0
split_feature=6 0 4 0 0 11 0 9 0 6 5
split_gain=3.84009 6.7985 2.9804 2.02503 1.6363 1.07219 1.27286 1.02725 1.36846 0.280067 0.0846441
threshold=4.5000000000000009 8.5000000000000018 1.0000000180025095e-35 18.500000000000004 49.500000000000007 1.0000000180025095e-35 28.250000000000004 1.0000000180025095e-35 30.250000000000004 1.5000000000000002 1.5000000000000002
decision_type=2 2 2 2 2 2 2 2 2 2 2
left_child=1 -1 3 -3 7 9 -7 8 -4 -5 -9
right_child=-2 2 4 5 -6 6 -8 10 -10 -11 -12
leaf_value=0.059569971712383429 -0.042379623683312551 -0.023065080308703356 -0.020289758324130391 0.021376025462809572 -0.039661073750433179 -0.0069145066946796818 0.022372454153051263 0.0024592532635786266 0.0016424113430905636 0.039747334480417729 0.012195275991690065
leaf_weight=4.5782552510499945 5.6055967658758155 4.0094034299254444 19.682115070521835 4.5620190836489236 4.5524284318089476 7.6171553060412371 7.2327532134950161 4.9947856515645963 11.136532928794621 3.8046953752636909 4.0365190580487251
leaf_count=26 37 21 164 32 32 43 54 22 78 26 29
internal_value=-0.00243879 0.000499173 -0.00327644 0.00974849 -0.0112629 0.0154152 0.00734992 -0.0080187 -0.0123644 0.0297302 0.00681074
internal_weight=81.8123 76.2067 71.6284 27.226 44.4024 23.2166 14.8499 39.85 30.8186 8.36671 9.0313
internal_count=564 527 501 176 325 155 97 293 242 58 51
is_linear=0
shrinkage=0.05


Tree=49
num_leaves=17
num_cat=0
split_feature=6 6 4 1 1 1 1 1 1 9 1 1 1 11 1 1
split_gain=3.52824 6.37141 2.46417 3.94928 2.24052 2.51801 1.63308 1.5819 1.65192 0.969779 0.942937 3.11745 0.38145 0.236409 0.000293108 0.000148826
threshold=4.5000000000000009 2.5000000000000004 1.0000000180025095e-35 29.850000000000005 7.7354000000000012 8.0937500000000018 7.910400000000001 7.8875000000000011 11.893750000000002 1.0000000180025095e-35 15.745850000000003 23.725000000000005 38.750000000000007 1.0000000180025095e-35 7.0521000000000003 79.02500000000002
decision_type=2 2 2 2 2 2 2 2 2 2 2 2 2 2 2 2
left_child=1 2 3 7 13 6 -6 -1 -9 -7 -3 -12 -13 -4 -15 -5
right_child=-2 10 4 15 5 9 -8 8 -10 -11 11 12 -14 14 -16 -17
leaf_value=0.016731626822483914 -0.040950854423369057 0.0088831908321027296 -0.031624139590074436 0.055060004273330479 -0.0047297078236794021 -0.023131643043950295 0.036946898078906824 -0.038677229171024757 0.0010017611448410245 -0.0021213430878335359 0.079814435577235415 0.0071300005997941094 0.031686505452180283 -0.053826829025038415 -0.054830275942586208 0.054423232043804906
leaf_weight=6.9292144924402299 5.5134968459606162 3.1436133161187163 1.8926196098327634 1.7461917623877519 5.5714545994997007 18.777375921607021 4.0658181235194206 4.1549071073532087 7.1146600618958473 7.7627667263150206 3.3013379797339422 3.0433647334575653 3.2920337617397308 1.4680522941052907 1.4431433342397211 1.9337543956935404
leaf_count=33 37 16 17 22 49 130 29 19 42 38 17 20 26 23 19 27
internal_value=-0.00233571 0.000478982 -0.0060643 0.00748446 -0.0132976 -0.00903743 0.012853 -0.00206805 -0.0136272 -0.0169863 0.032662 0.0404189 0.0198902 -0.0453808 -0.0543243 0.0547254
internal_weight=81.1538 75.6403 62.86 21.8787 40.9812 36.1774 9.63727 18.1988 11.2696 26.5401 12.7803 9.63674 6.3354 4.80382 2.9112 3.67995
internal_count=564 527 448 143 305 246 78 94 61 168 79 63 46 59 42 49
is_linear=0
shrinkage=0.05


Tree=50
num_leaves=18
num_cat=0
split_feature=4 1 8 8 0 8 9 0 0 8 1 1 1 8 6 1 9
split_gain=8.77019 3.26745 3.21543 3.33062 2.88625 2.34234 2.30334 3.62104 2.20189 1.58747 1.41082 1.63714 1.50984 0.695994 0.00126908 0.00111995 8.37722e-05
threshold=1.0000000180025095e-35 7.910400000000001 7.2281500000000003 4.8239541666666677 49.500000000000007 7.2396000000000003 1.0000000180025095e-35 29.500000000000004 6.5000000000000009 7.0521000000000003 30.597900000000003 16.400000000000002 8.6729000000000003 12.587500000000002 2.5000000000000004 7.7625000000000011 1.0000000180025095e-35
decision_type=2 2 2 2 2 2 2 2 2 2 2 2 2 2 2 2 2
left_child=2 5 3 -1 6 9 7 8 -3 -2 11 12 -4 -9 16 -7 -12
right_child=1 4 10 -5 -6 15 -8 13 -10 -11 14 -13 -14 -15 -16 -17 -18
leaf_value=0.032009700352696853 -0.03598833645391393 0.014310582117616089 0.019187699888015573 -0.027782797083490286 -0.047620583144876501 -0.056247454170909927 0.020958221649837197 -0.00085021990853596503 -0.032519443046111818 0.026581233149907509 0.054263978260396022 -0.0012682812262657748 0.056895006097959291 0.026508919538505968 0.056241056285267946 -0.057611219460247103 0.054776548960386223
leaf_weight=3.9015658944845217 2.36442683637142 3.0776931941509309 6.5682678669691104 5.7783797681331635 3.9990614131093016 2.3202408738434315 7.8920946568250647 4.0649970583617669 13.609837688505648 1.7745314650237558 1.6530665084719649 4.5327185317873946 4.4555636867880821 5.4292855188250542 1.5872871130704878 4.286832295358181 1.5395166091620922
leaf_count=19 30 15 32 29 27 26 38 28 107 17 24 28 26 31 17 40 20
internal_value=-0.00123136 -0.0143081 0.0200368 -0.00368304 -0.00743587 -0.0386561 -0.00271962 -0.00985693 -0.0238825 -0.00916234 0.0313272 0.0240272 0.0344281 0.014795 0.0550856 -0.0571323 0.0545111
internal_weight=78.8354 48.819 30.0164 9.67995 38.073 10.746 34.0739 26.1818 16.6875 4.13896 20.3364 15.5566 11.0238 9.49428 4.77987 6.60707 3.19258
internal_count=554 359 195 48 246 113 219 181 122 47 147 86 58 59 61 66 44
is_linear=0
shrinkage=0.05


Tree=51
num_leaves=20
num_cat=0
split_feature=4 1 0 1 2 9 0 0 0 0 1 1 0 1 11 0 6 2 0
split_gain=8.01778 3.08987 2.67382 2.41294 2.9314 2.08251 3.31518 2.04007 1.30043 1.60625 1.14494 1.93336 0.725327 0.573457 0.375642 0.308746 0.159049 0.000129294 0.000113834
threshold=1.0000000180025095e-35 7.910400000000001 49.500000000000007 31.331250000000001 1.0000000180025095e-35 1.0000000180025095e-35 29.500000000000004 16.500000000000004 20.250000000000004 30.250000000000004 7.2396000000000003 7.133350000000001 27.500000000000004 14.200000000000001 1.0000000180025095e-35 25.500000000000004 3.5000000000000004 1.0000000180025095e-35 28.250000000000004
decision_type=2 2 2 2 2 2 2 2 2 2 2 2 2 2 2 2 2 2 2
left_child=3 10 5 4 8 6 7 -3 -1 14 11 -2 -6 -8 -10 -12 17 -5 -17
right_child=1 2 -4 16 12 -7 13 -9 9 -11 15 -13 -14 -15 -16 18 -18 -19 -20
leaf_value=0.0012323146245322636 -0.053852170173213088 0.0072478012562299634 -0.046259031453360883 0.054186050693001898 -0.024293684739303226 0.019831112857375412 0.027028647390261007 -0.03332310250869279 0.035903115013929454 0.0063102564957180267 -0.034626963763201977 0.020014384439309849 0.0049091761802957691 0.0024621127163083349 0.057853519366086618 -0.056953179152496473 0.036566294090941802 0.054768962885022247 -0.057452666176003309
leaf_weight=4.1117363646626535 1.67641334235668 4.145371623337275 3.9131372794508925 1.8361341059207907 4.7045301795005781 7.9227970838546744 4.4747831821441633 12.269909597933291 3.936726629734042 3.5788684338331223 2.2612820118665695 1.8784482330083847 3.8798677697777748 5.0635103434324265 3.8603264540433839 2.5662321969866753 1.8337894752621648 1.9740228280425072 2.0534182786941528
leaf_count=20 28 26 27 27 24 38 30 96 21 21 23 15 21 29 20 26 15 26 21
internal_value=-0.00118912 -0.0137775 -0.00712664 0.0192403 0.0123413 -0.00260637 -0.00945582 -0.0230777 0.0253314 0.0340419 -0.0378614 -0.0148198 -0.0110949 0.0139872 0.0467708 -0.0497652 0.048665 0.0544881 -0.0571752
internal_weight=77.9413 48.2253 37.7895 29.716 24.0721 33.8764 25.9536 16.4153 15.4877 11.3759 10.4358 3.55486 8.5844 9.53829 7.79705 6.88093 5.64395 3.81016 4.61965
internal_count=554 359 246 195 127 219 181 122 82 62 113 43 45 59 41 70 68 53 47
is_linear=0
shrinkage=0.05


Tree=52
num_leaves=19
num_cat=0
split_feature=4 0 1 8 8 8 0 9 0 1 1 8 0 8 1 0 0 1
split_gain=7.31986 2.95296 3.50023 2.84507 3.05562 2.27197 1.51764 2.93624 1.75566 1.43278 1.40767 1.33516 3.67339 1.3222 0.4801 0.000821938 0.00050184 0.000133416
threshold=1.0000000180025095e-35 51.500000000000007 7.910400000000001 7.2281500000000003 4.8239541666666677 7.2396000000000003 30.250000000000004 1.0000000180025095e-35 6.5000000000000009 30.597900000000003 14.456250000000002 12.587500000000002 38.500000000000007 7.0521000000000003 7.910400000000001 27.500000000000004 25.500000000000004 79.825000000000017
decision_type=2 2 2 2 2 2 2 2 2 2 2 2 2 2 2 2 2 2
left_child=3 2 5 4 -1 13 7 8 -4 10 14 -8 -13 -2 -5 -7 -11 -18
right_child=1 -3 6 9 -6 15 11 -9 -10 16 -12 12 -14 -15 -16 -17 17 -19
leaf_value=0.030367584434232466 -0.033900575692819526 -0.063674987378212977 0.013283510258214165 0.023762748220055054 -0.026789370836483112 -0.05571862004729148 -0.012985049859397481 0.021465021246163247 -0.028534356915537459 0.055255676617107723 0.002433382446452313 0.054299764775970538 -0.010181058586958627 0.023789833807629765 0.046166818813181784 -0.056960337806299971 0.054505900294558041 0.053799102377326741
leaf_weight=3.9223884493112582 2.1768397428095323 2.7367783673107615 3.0663692057132783 5.3546091020107287 5.7899475619196892 2.0673514828085899 4.029410768300294 5.3808587193489066 13.830425083637236 1.7056816555559624 5.6933677569031707 4.3747797906398755 4.4610372334718704 1.8265448212623594 4.320709340274334 3.7503167688846588 1.3558697849512102 1.315386865288019
leaf_count=19 29 24 15 27 29 23 28 26 112 21 34 22 24 17 25 39 19 21
internal_value=-0.00114733 -0.0132496 -0.0101804 0.0184497 -0.00370617 -0.0365696 -0.00280571 -0.0107018 -0.0209454 0.0293476 0.0221598 0.0108672 0.0217446 -0.00757932 0.0337677 -0.0565191 0.0545857 0.0541579
internal_weight=77.1587 47.7007 44.9639 29.458 9.71234 9.82105 35.1429 22.2777 16.8968 19.7456 15.3687 12.8652 8.83582 4.00338 9.67532 5.81767 4.37694 2.67126
internal_count=554 359 335 195 48 108 227 153 127 147 86 74 46 46 52 62 61 40
is_linear=0
shrinkage=0.05


Tree=53
num_leaves=20
num_cat=0
split_feature=4 5 1 0 8 8 8 0 11 0 8 8 8 1 1 1 6 1 11
split_gain=6.69241 2.7835 2.75942 2.30795 2.22674 1.8472 2.07083 1.60322 1.88995 2.59177 1.53046 1.24862 0.826422 0.685996 1.91126 0.0237909 0.00085555 0.000701099 3.38005e-05
threshold=1.0000000180025095e-35 2.5000000000000004 7.910400000000001 49.500000000000007 7.2396000000000003 7.2281500000000003 5.0409666666666668 30.250000000000004 1.0000000180025095e-35 16.500000000000004 7.133350000000001 12.587500000000002 7.7625000000000011 30.597900000000003 20.787500000000005 28.200000000000003 2.5000000000000004 7.7625000000000011 1.0000000180025095e-35
decision_type=2 2 2 2 2 2 2 2 2 2 2 2 2 2 2 2 2 2 2
left_child=1 13 4 7 10 6 -3 8 -4 -10 -2 -9 -7 14 -1 -13 18 -6 -15
right_child=2 5 3 -5 17 12 -8 11 9 -11 -12 15 -14 16 -16 -17 -18 -19 -20
leaf_value=0.060000875063622242 -0.034492431031313178 0.015551441122410227 0.01192984744071982 -0.043820692887501275 -0.055321522220779698 0.03756634933463196 -0.032877392360263435 -0.010539613053360035 0.017016441447754025 -0.031333508836761975 0.027859196085829964 0.027537920330426298 0.0086757436905057043 0.054011750678410166 0.0031253254665414322 0.021928592779421018 0.055352560548356355 -0.056472074385320495 0.053663125360955292
leaf_weight=2.6225839778780955 2.2878608927130681 4.1412625759840029 6.6787342056632033 3.7365476563572875 2.0356489941477776 4.3156475126743299 4.7269072830677032 3.8281532973051053 3.6276072971522835 11.747121449559925 1.727107375860214 3.4276291877031326 5.8046434223651886 1.3884334973990933 3.3817924782633781 4.2145826071500778 1.4004363156855104 3.7877196297049522 1.3925965391099437
leaf_count=20 33 20 35 27 26 22 23 26 23 95 14 21 26 21 23 19 17 40 23
internal_value=-0.00110942 0.0177089 -0.012766 -0.00654714 -0.0363185 0.00639741 -0.0102621 -0.00239265 -0.0102784 -0.0199255 -0.00767081 0.0127688 0.0209957 0.0387957 0.0279674 0.0244444 0.0543447 -0.0560699 0.0538372
internal_weight=76.273 29.1743 47.0987 37.2604 9.83834 18.9885 8.86817 33.5238 22.0535 15.3747 4.01497 11.4704 10.1203 10.1858 6.00438 7.64221 4.18147 5.82337 2.78103
internal_count=554 195 359 246 113 91 43 219 153 118 47 66 48 104 43 40 61 66 44
is_linear=0
shrinkage=0.05


Tree=54
num_leaves=18
num_cat=0
split_feature=4 1 8 8 8 1 8 1 1 1 1 1 1 6 6 1 9
